tree
version=v3
num_class=1
num_tree_per_iteration=1
label_index=0
max_feature_idx=41
objective=poisson
feature_names=Exposure VehPower VehAge DrivAge BonusMalus Density VehBrand_B10 VehBrand_B11 VehBrand_B12 VehBrand_B13 VehBrand_B14 VehBrand_B2 VehBrand_B3 VehBrand_B4 VehBrand_B5 VehBrand_B6 VehGas_Regular Area_B Area_C Area_D Area_E Area_F Region_Aquitaine Region_Auvergne Region_Basse-Normandie Region_Bourgogne Region_Bretagne Region_Centre Region_Champagne-Ardenne Region_Corse Region_Franche-Comte Region_Haute-Normandie Region_Ile-de-France Region_Languedoc-Roussillon Region_Limousin Region_Midi-Pyrenees Region_Nord-Pas-de-Calais Region_Pays-de-la-Loire Region_Picardie Region_Poitou-Charentes Region_Provence-Alpes-Cotes-D'Azur Region_Rhone-Alpes
feature_infos=[0.0027322404371584699:1.98] [4:15] [0:100] [18:100] [50:230] [1:27000] [0:1] [0:1] [0:1] [0:1] [0:1] [0:1] [0:1] [0:1] [0:1] [0:1] [0:1] [0:1] [0:1] [0:1] [0:1] [0:1] [0:1] [0:1] [0:1] [0:1] [0:1] [0:1] [0:1] [0:1] [0:1] [0:1] [0:1] [0:1] [0:1] [0:1] [0:1] [0:1] [0:1] [0:1] [0:1] [0:1]
tree_sizes=569 572 576 570 572 573 575 573 578 575 577 575 576 578 581 575 575 576 572 577 580 576 570 576 580 569 577 578 569 579 577 579 580 573 575 577 583 583 569 581 571 575 578 575 573 576 578 570 570 582 580 580 575 582 578 575 574 582 579 576 575 575 582 579 577 569 584 582 579 574 574 582 568 577 581 575 574 585 576 578 574 578 578 575 568 577 581 573 576 585 578 575 571 579 585 575 583 572 569 575 579 580 582 576 569 583 585 580 572 580 584 582 574 578 580 584 582 573 585 571 583 573 571 575 582 571 579 574 580 585 582 583 575 581 576 584 582 583 588 568 570 580 584 581 566 582 583 576 579 580 575 575 577 572 579 588 574 575 579 569 588 582 584 566 586 575 583 577 581 585 586 585 577 583 575 571 572 583 584 577 588 583 573 582 572 566 580 581 583 568 578 579 576 579 575 578 576 571 580 576 580 583 579 588 587 576 577 578 574 567 589 569 580 575 579 585 574 576 581 590 579 584 577 566 580 577 573 569 579 575 581 581 569 587 584 569 585 574 577 578 576 588 584 576 574 574 578 572 572 589 582 581 576 583 578 586 579 574 583 570 589 577 577 581 589 588 577 582 590 573 580 578 580 576 574 573 564 587 577 579 576 583 587 585 576 573 581 565 574 585 582 581 589 582 579 577 581 576 593 586 575 578 581 562 579 588 579 580 578 582 581 576 575 588 581 577 567 581 576 575 580 582 588 576 578 576 577 588 578 586 585 562 585 578 579 574 581 578 565 575 578 578 582 589 574 582 579 579 579 575 584 587 582 593 586 576 576 588 579 575 572 575 575 582 585 582 572 582 578 574 586 580 570 584 579 576 582 576 582 582 578 586 581 576 587 588 582 576 568 464 576 579 578 576 582 574 587 574 583 577 578 578 577 585 590 590 576 582 581 580 587 575 578 583 577 579 583 565 575 577 588 572 582 584 578 586 583 588 585 576 583 580 579 586 582 580 581 581 577 579 588 577 583 461 583 580 586 586 587 582 579 574 583 579 577 579 588 584 567 577 587 594 578 571 589 578 574 576 581 586 585 583 587 581 577 577 577 576 576 569 583 577 588 579 580 585 570 584 588 585 577 575 569 583 572 580 585 588 583 580

Tree=0
num_leaves=4
num_cat=0
split_feature=0 4 2
split_gain=1169.71 1046.46 814.494
threshold=0.54500000000000015 57.500000000000007 1.0000000180025095e-35
decision_type=2 2 2
left_child=2 -2 -1
right_child=1 -3 -4
leaf_value=-2.9456404553127618 -2.984550042663062 -2.9130332070123379 -3.0202164132166729
leaf_weight=3765.9134514480829 18632.000196486712 6114.1593199968338 26358.662818282843
leaf_count=37227 184182 60440 260562
internal_value=-2.99104 -2.96688 -3.01089
internal_weight=0 24746.2 30124.6
internal_count=542411 244622 297789
is_linear=0
shrinkage=1


Tree=1
num_leaves=4
num_cat=0
split_feature=0 4 2
split_gain=1020.12 887.593 615.919
threshold=0.38500000000000006 100.50000000000001 1.0000000180025095e-35
decision_type=2 2 2
left_child=2 -2 -1
right_child=1 -3 -4
leaf_value=0.035502155282329827 0.014457301526182596 0.25462166923275958 -0.034701834374108544
leaf_weight=3290.7552315741777 31946.111713401973 350.03551402688026 19318.370922356844
leaf_count=31086 311405 3300 196620
internal_value=0 0.0170603 -0.0244837
internal_weight=0 32296.1 22609.1
internal_count=542411 314705 227706
is_linear=0
shrinkage=0.15


Tree=2
num_leaves=4
num_cat=0
split_feature=0 4 2
split_gain=901.365 646.577 540.94
threshold=0.29500000000000004 57.500000000000007 1.0000000180025095e-35
decision_type=2 2 2
left_child=2 -2 -1
right_child=1 -3 -4
leaf_value=0.030999225543232818 0.00077928519481575132 0.044779132000034833 -0.037549959178363602
leaf_weight=3091.3755850791931 25148.444518081844 10716.717789307237 15975.488931059837
leaf_count=28184 245858 100031 168338
internal_value=0 0.0139267 -0.0264358
internal_weight=0 35865.2 19066.9
internal_count=542411 345889 196522
is_linear=0
shrinkage=0.15


Tree=3
num_leaves=4
num_cat=0
split_feature=0 4 2
split_gain=804.126 628.954 562.338
threshold=0.54500000000000015 57.500000000000007 1.0000000180025095e-35
decision_type=2 2 2
left_child=2 -2 -1
right_child=1 -3 -4
leaf_value=0.033473068689622715 0.004753064177684195 0.057101830576409607 -0.026015580550420813
leaf_weight=4182.0710277035832 19041.311893746257 7085.6649907380342 24641.952196657658
leaf_count=37227 184182 60440 260562
internal_value=0 0.0189501 -0.0173844
internal_weight=0 26127 28824
internal_count=542411 244622 297789
is_linear=0
shrinkage=0.15


Tree=4
num_leaves=4
num_cat=0
split_feature=0 4 2
split_gain=716.953 556.711 425.822
threshold=0.29500000000000004 95.500000000000014 1.0000000180025095e-35
decision_type=2 2 2
left_child=2 -2 -1
right_child=1 -3 -4
leaf_value=0.024412835075865412 0.0084067158181727938 0.10792873320903384 -0.0351257500003554
leaf_weight=3297.2488901019096 35367.239726006985 1311.5587683841586 14991.600504860282
leaf_count=28184 335093 10796 168338
internal_value=0 0.0119654 -0.0243917
internal_weight=0 36678.8 18288.8
internal_count=542411 345889 196522
is_linear=0
shrinkage=0.15


Tree=5
num_leaves=4
num_cat=0
split_feature=0 4 2
split_gain=622.827 466.565 440.694
threshold=0.54500000000000015 57.500000000000007 1.0000000180025095e-35
decision_type=2 2 2
left_child=2 -2 -1
right_child=1 -3 -4
leaf_value=0.027682067995807271 0.00371710482027688 0.047507879960302382 -0.023927313611512225
leaf_weight=4419.1113480553031 19293.547525539994 7642.8940210342407 23624.181716807187
leaf_count=37227 184182 60440 260562
internal_value=0 0.0161422 -0.0157946
internal_weight=0 26936.4 28043.3
internal_count=542411 244622 297789
is_linear=0
shrinkage=0.15


Tree=6
num_leaves=4
num_cat=0
split_feature=0 4 2
split_gain=571.704 397.325 336.681
threshold=0.29500000000000004 95.500000000000014 1.0000000180025095e-35
decision_type=2 2 2
left_child=2 -2 -1
right_child=1 -3 -4
leaf_value=0.019392517191372857 0.0071872351112800105 0.086285227018954427 -0.032731297222963522
leaf_weight=3473.5715415477753 35895.303036645055 1488.1227618679404 14131.933377757668
leaf_count=28184 335093 10796 168338
internal_value=0 0.0103359 -0.0224473
internal_weight=0 37383.4 17605.5
internal_count=542411 345889 196522
is_linear=0
shrinkage=0.15


Tree=7
num_leaves=4
num_cat=0
split_feature=0 4 2
split_gain=514.081 395.8 198.346
threshold=0.085000000000000006 95.500000000000014 1.0000000180025095e-35
decision_type=2 2 2
left_child=2 -2 -1
right_child=1 -3 -4
leaf_value=0.006876373077115026 0.0028368864650727909 0.068294573506244377 -0.048015710413741246
leaf_weight=1944.9592872560024 44659.736957117915 2179.8909973353148 6210.3161866366863
leaf_count=15478 433179 17316 76438
internal_value=0 0.00588325 -0.0349244
internal_weight=0 46839.6 8155.28
internal_count=542411 450495 91916
is_linear=0
shrinkage=0.15


Tree=8
num_leaves=4
num_cat=0
split_feature=0 4 2
split_gain=461.116 311.143 276.905
threshold=0.21500000000000002 57.500000000000007 1.0000000180025095e-35
decision_type=2 2 2
left_child=2 -2 -1
right_child=1 -3 -4
leaf_value=0.014913560211420597 -0.0015008667010280195 0.026075429768015666 -0.035990672125334418
leaf_weight=3127.4694141149521 27676.873702421784 13794.306846238673 10399.477898262441
leaf_count=24723 270343 116166 131179
internal_value=0 0.00767167 -0.0242215
internal_weight=0 41471.2 13526.9
internal_count=542411 386509 155902
is_linear=0
shrinkage=0.15


Tree=9
num_leaves=4
num_cat=0
split_feature=0 2 4
split_gain=423.883 309.312 298.273
threshold=0.54500000000000015 1.0000000180025095e-35 54.500000000000007
decision_type=2 2 2
left_child=1 -1 -2
right_child=2 -3 -4
leaf_value=0.021348877242487213 0.0017324857151334824 -0.020949920445104773 0.034506154004414341
leaf_weight=4711.1401592046022 18560.019787311554 22310.373624451458 9418.8718644976616
leaf_count=37227 175024 260562 69598
internal_value=0 -0.0135752 0.0127655
internal_weight=0 27021.5 27978.9
internal_count=542411 297789 244622
is_linear=0
shrinkage=0.15


Tree=10
num_leaves=4
num_cat=0
split_feature=0 4 2
split_gain=402.186 288.639 155.914
threshold=0.085000000000000006 95.500000000000014 1.0000000180025095e-35
decision_type=2 2 2
left_child=2 -2 -1
right_child=1 -3 -4
leaf_value=0.0034410488491086215 0.0022682195764313468 0.055767643344794685 -0.045086259021936102
leaf_weight=2030.6986183524132 44990.610408358276 2389.5355520248413 5591.5440319478512
leaf_count=15478 433179 17316 76438
internal_value=0 0.00496637 -0.0321577
internal_weight=0 47380.1 7622.24
internal_count=542411 450495 91916
is_linear=0
shrinkage=0.15


Tree=11
num_leaves=4
num_cat=0
split_feature=0 4 2
split_gain=355.027 241.672 144.246
threshold=0.085000000000000006 90.500000000000014 1.0000000180025095e-35
decision_type=2 2 2
left_child=2 -2 -1
right_child=1 -3 -4
leaf_value=0.0031733520240145637 0.001446595281077923 0.041158828809254477 -0.043730311020584056
leaf_weight=2037.6983169615269 43877.352298021317 3742.0028510093689 5345.041261985898
leaf_count=15478 422070 28425 76438
internal_value=0 0.00456724 -0.0307845
internal_weight=0 47619.4 7382.74
internal_count=542411 450495 91916
is_linear=0
shrinkage=0.15


Tree=12
num_leaves=4
num_cat=0
split_feature=0 2 4
split_gain=327.494 249.844 225.138
threshold=0.55500000000000016 1.0000000180025095e-35 54.500000000000007
decision_type=2 2 2
left_child=1 -1 -2
right_child=2 -3 -4
leaf_value=0.018567141686688986 0.0013566073590382571 -0.018946784807238725 0.029506515064491461
leaf_weight=4889.0474148392677 18515.538911700249 21832.515928462148 9763.5151991546154
leaf_count=37532 173656 262647 68576
internal_value=0 -0.0120831 0.0110755
internal_weight=0 26721.6 28279.1
internal_count=542411 300179 242232
is_linear=0
shrinkage=0.15


Tree=13
num_leaves=4
num_cat=0
split_feature=0 2 2
split_gain=302.484 214.95 122.336
threshold=0.085000000000000006 1.0000000180025095e-35 1.0000000180025095e-35
decision_type=2 2 2
left_child=2 -2 -1
right_child=1 -3 -4
leaf_value=0.0015031886148298183 0.037702746135313901 0.0011029565107264587 -0.041740829780091436
leaf_weight=2082.4840257465839 3933.4866565838456 43963.711017362773 5020.3120836317539
leaf_count=15478 30797 419698 76438
internal_value=0 0.00410866 -0.029062
internal_weight=0 47897.2 7102.8
internal_count=542411 450495 91916
is_linear=0
shrinkage=0.15


Tree=14
num_leaves=4
num_cat=0
split_feature=0 4 2
split_gain=272.944 175.499 162.075
threshold=0.29500000000000004 57.500000000000007 1.0000000180025095e-35
decision_type=2 2 2
left_child=2 -2 -1
right_child=1 -3 -4
leaf_value=0.0099715347064199857 -0.00071920822797393871 0.020425982239648335 -0.025356933894815307
leaf_weight=3861.0301377475262 25659.295762553811 13466.432478435338 12010.780712075531
leaf_count=28184 245858 100031 168338
internal_value=0 0.00655862 -0.0167628
internal_weight=0 39125.7 15871.8
internal_count=542411 345889 196522
is_linear=0
shrinkage=0.15


Tree=15
num_leaves=4
num_cat=0
split_feature=0 4 8
split_gain=249.186 181.747 111.154
threshold=0.085000000000000006 90.500000000000014 1.0000000180025095e-35
decision_type=2 2 2
left_child=2 -2 -1
right_child=1 -3 -4
leaf_value=-0.04144558238080865 0.0008624238042576574 0.034341877377539402 -0.0015079893967925874
leaf_weight=4348.9824517555535 44217.52217078954 3976.3971059396863 2452.048288051039
leaf_count=65481 422070 28425 26435
internal_value=0 0.00362476 -0.0270465
internal_weight=0 48193.9 6801.03
internal_count=542411 450495 91916
is_linear=0
shrinkage=0.15


Tree=16
num_leaves=4
num_cat=0
split_feature=0 2 4
split_gain=237.124 205.824 169.574
threshold=0.63500000000000012 1.0000000180025095e-35 54.500000000000007
decision_type=2 2 2
left_child=1 -1 -2
right_child=2 -3 -4
leaf_value=0.016874938723201682 0.0014257657097589266 -0.015640396339558774 0.026834177316297027
leaf_weight=5388.4113517850637 17182.700962498784 23412.249748125672 9008.411008246243
leaf_count=39630 160557 282190 60034
internal_value=0 -0.00955699 0.010165
internal_weight=0 28800.7 26191.1
internal_count=542411 321820 220591
is_linear=0
shrinkage=0.15


Tree=17
num_leaves=4
num_cat=0
split_feature=0 2 8
split_gain=213.42 153.36 98.5615
threshold=0.085000000000000006 1.0000000180025095e-35 1.0000000180025095e-35
decision_type=2 2 2
left_child=2 -2 -1
right_child=1 -3 -4
leaf_value=-0.03966236164442926 0.030692678225889246 0.00068471232467379975 -0.0017264501771551875
leaf_weight=4126.2949115931988 4195.6455781459808 44208.316369183362 2459.410231243819
leaf_count=65481 30797 419698 26435
internal_value=0 0.0032858 -0.0254953
internal_weight=0 48404 6585.71
internal_count=542411 450495 91916
is_linear=0
shrinkage=0.15


Tree=18
num_leaves=4
num_cat=0
split_feature=0 2 2
split_gain=200.073 154.919 138.015
threshold=0.56500000000000006 12.500000000000002 1.0000000180025095e-35
decision_type=2 2 2
left_child=2 -2 -1
right_child=1 -3 -4
leaf_value=0.01186762199252871 0.014108187513712719 -0.012843893193230373 -0.015203098079916919
leaf_weight=5323.9277824014425 22821.011768274009 6076.0266416370869 20765.05500337109
leaf_count=37831 189437 50283 264860
internal_value=0 0.00844112 -0.00967883
internal_weight=0 28897 26089
internal_count=542411 239720 302691
is_linear=0
shrinkage=0.15


Tree=19
num_leaves=4
num_cat=0
split_feature=0 4 16
split_gain=183.178 141.388 134.275
threshold=0.21500000000000002 100.50000000000001 1.0000000180025095e-35
decision_type=2 2 2
left_child=2 -2 -1
right_child=1 -3 -4
leaf_value=-0.032270061007012164 0.0030778678170047835 0.061460061349777925 -0.00021746297426934955
leaf_weight=6068.5396889261901 42254.521560326219 954.41005823016167 5705.5082870908082
leaf_count=79836 382151 4358 76066
internal_value=0 0.00436743 -0.0167379
internal_weight=0 43208.9 11774
internal_count=542411 386509 155902
is_linear=0
shrinkage=0.15


Tree=20
num_leaves=4
num_cat=0
split_feature=0 4 8
split_gain=165.214 142.95 88.6678
threshold=0.085000000000000006 57.500000000000007 1.0000000180025095e-35
decision_type=2 2 2
left_child=2 -2 -1
right_child=1 -3 -4
leaf_value=-0.037192931712972652 -0.0033218325869875239 0.013584468520157116 -0.00056019283857924776
leaf_weight=3853.0772787369788 31059.791314557195 17646.304798282683 2420.6114410422742
leaf_count=65481 308686 141809 26435
internal_value=0 0.00280335 -0.0230587
internal_weight=0 48706.1 6273.69
internal_count=542411 450495 91916
is_linear=0
shrinkage=0.15


Tree=21
num_leaves=4
num_cat=0
split_feature=0 2 4
split_gain=155.681 176.762 162.153
threshold=0.74500000000000011 1.0000000180025095e-35 54.500000000000007
decision_type=2 2 2
left_child=1 -1 -2
right_child=2 -3 -4
leaf_value=0.016548202462005099 0.00037428232812570253 -0.012192822456647857 0.02712784677796494
leaf_weight=5902.0608172938228 15296.128969162703 26132.927296418697 7644.9843058586121
leaf_count=42187 141452 310181 48591
internal_value=0 -0.00689763 0.00928974
internal_weight=0 32035 22941.1
internal_count=542411 352368 190043
is_linear=0
shrinkage=0.15


Tree=22
num_leaves=4
num_cat=0
split_feature=4 3 0
split_gain=146.773 182.712 75.9755
threshold=95.500000000000014 39.500000000000007 0.95500000000000007
decision_type=2 2 2
left_child=1 -1 -2
right_child=2 -3 -4
leaf_value=-0.013722182024744147 0.022216095323791388 0.0047458818952166946 0.091562026344712236
leaf_weight=19096.326785001904 2788.9260774813592 32681.178862780333 407.40784551203251
leaf_count=188668 20708 331576 1459
internal_value=0 -0.00206542 0.031055
internal_weight=0 51777.5 3196.33
internal_count=542411 520244 22167
is_linear=0
shrinkage=0.15


Tree=23
num_leaves=4
num_cat=0
split_feature=0 2 8
split_gain=141.505 123.106 76.993
threshold=0.085000000000000006 12.500000000000002 1.0000000180025095e-35
decision_type=2 2 2
left_child=2 -2 -1
right_child=1 -3 -4
leaf_value=-0.03537051118883041 0.0061897075051290463 -0.013041404244152822 -0.00097219091183529298
leaf_weight=3673.5679646767676 39628.148430995643 9234.8792467489839 2434.1771245710552
leaf_count=65481 363921 86574 26435
internal_value=0 0.00255512 -0.0216614
internal_weight=0 48863 6107.75
internal_count=542411 450495 91916
is_linear=0
shrinkage=0.15


Tree=24
num_leaves=4
num_cat=0
split_feature=0 3 16
split_gain=129.446 128.795 118.322
threshold=0.49500000000000005 40.500000000000007 1.0000000180025095e-35
decision_type=2 2 2
left_child=2 -2 -1
right_child=1 -3 -4
leaf_value=-0.019790852742817101 -0.0059804300462412852 0.013363592334305884 0.0020577756606814548
leaf_weight=11227.318543810397 12624.919798396528 20033.263257041574 11081.634001921862
leaf_count=138300 94109 175206 134796
internal_value=0 0.00588563 -0.00893788
internal_weight=0 32658.2 22309
internal_count=542411 269315 273096
is_linear=0
shrinkage=0.15


Tree=25
num_leaves=4
num_cat=0
split_feature=4 3 0
split_gain=129.965 164.674 59.2479
threshold=90.500000000000014 39.500000000000007 0.9850000000000001
decision_type=2 2 2
left_child=1 -1 -2
right_child=2 -3 -4
leaf_value=-0.014109284383227059 0.017236091443049648 0.0039156687880194489 0.067981878351420638
leaf_weight=17521.962427720428 4189.7483066245914 32661.821845240891 590.65201739966869
leaf_count=177747 33619 328636 2409
internal_value=0 -0.00237785 0.0235061
internal_weight=0 50183.8 4780.4
internal_count=542411 506383 36028
is_linear=0
shrinkage=0.15


Tree=26
num_leaves=4
num_cat=0
split_feature=0 4 2
split_gain=115.64 122.645 71.3107
threshold=0.085000000000000006 57.500000000000007 1.0000000180025095e-35
decision_type=2 2 2
left_child=2 -2 -1
right_child=1 -3 -4
leaf_value=0.0026696226535140089 -0.0034296171246299407 0.012143827344755496 -0.031936496549107851
leaf_weight=2051.001791909337 31106.905280381441 17939.753975652158 3863.5717995241284
leaf_count=15478 308686 141809 76438
internal_value=0 0.00226667 -0.0199361
internal_weight=0 49046.7 5914.57
internal_count=542411 450495 91916
is_linear=0
shrinkage=0.15


Tree=27
num_leaves=4
num_cat=0
split_feature=0 2 2
split_gain=107.787 140.732 127.937
threshold=0.71500000000000008 1.0000000180025095e-35 11.500000000000002
decision_type=2 2 2
left_child=1 -1 -2
right_child=2 -3 -4
leaf_value=0.014709215401117359 0.013753541829469512 -0.011134304043839071 -0.010677759099176115
leaf_weight=5884.1658123731613 18095.260712049901 24403.548607259989 6574.9843391552567
leaf_count=41525 145279 301092 54515
internal_value=0 -0.00611354 0.00724224
internal_weight=0 30287.7 24670.2
internal_count=542411 342617 199794
is_linear=0
shrinkage=0.15


Tree=28
num_leaves=4
num_cat=0
split_feature=4 3 0
split_gain=104.09 146.819 41.6279
threshold=90.500000000000014 39.500000000000007 0.9850000000000001
decision_type=2 2 2
left_child=1 -1 -2
right_child=2 -3 -4
leaf_value=-0.013338989794922252 0.015349206387473521 0.0037448228414413767 0.056267692791675268
leaf_weight=17301.237549044192 4277.7473974302411 32733.149492591619 643.56762073934078
leaf_count=177747 33619 328636 2409
internal_value=0 -0.00216254 0.0207002
internal_weight=0 50034.4 4921.32
internal_count=542411 506383 36028
is_linear=0
shrinkage=0.15


Tree=29
num_leaves=4
num_cat=0
split_feature=0 16 2
split_gain=99.9599 114.329 104.213
threshold=0.21500000000000002 1.0000000180025095e-35 12.500000000000002
decision_type=2 2 2
left_child=1 -1 -2
right_child=2 -3 -4
leaf_value=-0.028120006151881254 0.0066399193674033519 0.0024153085838391226 -0.011969191202028502
leaf_weight=5525.3874882981181 35553.201300732791 5510.1806154064834 8363.9101812243462
leaf_count=79836 310073 76066 76436
internal_value=0 -0.0128734 0.00309586
internal_weight=0 11035.6 43917.1
internal_count=542411 155902 386509
is_linear=0
shrinkage=0.15


Tree=30
num_leaves=4
num_cat=0
split_feature=4 4 2
split_gain=97.3405 282.631 93.4195
threshold=60.500000000000007 62.500000000000007 1.0000000180025095e-35
decision_type=2 2 2
left_child=2 -2 -1
right_child=1 -3 -4
leaf_value=0.015142262459800854 0.094532116569309307 0.0048090145932645793 -0.0074103008232296493
leaf_weight=4741.1550357490778 828.00894876942039 17181.649452712387 32199.324523296207
leaf_count=34610 7090 152542 348169
internal_value=0 0.00893411 -0.00451577
internal_weight=0 18009.7 36940.5
internal_count=542411 159632 382779
is_linear=0
shrinkage=0.15


Tree=31
num_leaves=4
num_cat=0
split_feature=0 4 8
split_gain=92.7367 93.8867 62.7733
threshold=0.085000000000000006 57.500000000000007 1.0000000180025095e-35
decision_type=2 2 2
left_child=2 -2 -1
right_child=1 -3 -4
leaf_value=-0.03145256878572962 -0.0030408420321305996 0.010517277047592881 0.00039043822341959397
leaf_weight=3339.1249677687883 30937.638008266687 18283.026495724916 2389.8800793513656
leaf_count=65481 308686 141809 26435
internal_value=0 0.00199532 -0.0181691
internal_weight=0 49220.7 5729.01
internal_count=542411 450495 91916
is_linear=0
shrinkage=0.15


Tree=32
num_leaves=4
num_cat=0
split_feature=0 2 4
split_gain=88.4087 119.852 105.212
threshold=0.74500000000000011 1.0000000180025095e-35 54.500000000000007
decision_type=2 2 2
left_child=1 -1 -2
right_child=2 -3 -4
leaf_value=0.013526848392419714 -0.00045170399728139914 -0.009898197791036038 0.020590761777537138
leaf_weight=6104.6660253033042 15466.781106762588 25204.522801943123 8170.6119158193469
leaf_count=42187 141452 310181 48591
internal_value=0 -0.00533078 0.00682193
internal_weight=0 31309.2 23637.4
internal_count=542411 352368 190043
is_linear=0
shrinkage=0.15


Tree=33
num_leaves=4
num_cat=0
split_feature=2 0 4
split_gain=82.2285 115.053 42.2467
threshold=12.500000000000002 0.80500000000000016 96.500000000000014
decision_type=2 2 2
left_child=1 -1 -2
right_child=2 -3 -4
leaf_value=-0.0032553697190005359 -0.015639892564284455 0.012377420349164364 0.020265276735297929
leaf_weight=28366.997038196772 8867.7756105028093 16905.501277923584 804.19555971026421
leaf_count=307090 96015 133412 5894
internal_value=0 0.00258217 -0.0126545
internal_weight=0 45272.5 9671.97
internal_count=542411 440502 101909
is_linear=0
shrinkage=0.15


Tree=34
num_leaves=4
num_cat=0
split_feature=3 4 4
split_gain=79.9034 160.392 137.297
threshold=42.500000000000007 51.500000000000007 85.500000000000014
decision_type=2 2 2
left_child=2 -2 -1
right_child=1 -3 -4
leaf_value=-0.012101621856371198 -0.00087310996231451709 0.025220898835214577 0.015049824709849979
leaf_weight=19749.568336967379 22984.544539310038 6888.5667270831764 5318.9932629391551
leaf_count=205584 236998 58556 41273
internal_value=0 0.00514402 -0.00634069
internal_weight=0 29873.1 25068.6
internal_count=542411 295554 246857
is_linear=0
shrinkage=0.15


Tree=35
num_leaves=4
num_cat=0
split_feature=0 16 2
split_gain=77.3654 85.6325 77.0778
threshold=0.12500000000000003 1.0000000180025095e-35 12.500000000000002
decision_type=2 2 2
left_child=1 -1 -2
right_child=2 -3 -4
leaf_value=-0.030345212815237804 0.005007231127945674 0.0016594493409422446 -0.010642219767503031
leaf_weight=3734.4891922473907 38751.48125436902 3790.0254911482334 8664.6567874252796
leaf_count=59125 344260 55472 83554
internal_value=0 -0.0142248 0.00214751
internal_weight=0 7524.51 47416.1
internal_count=542411 114597 427814
is_linear=0
shrinkage=0.15


Tree=36
num_leaves=4
num_cat=0
split_feature=2 16 8
split_gain=74.6584 425.406 193.539
threshold=1.0000000180025095e-35 1.0000000180025095e-35 1.0000000180025095e-35
decision_type=2 2 2
left_child=1 -1 -2
right_child=2 -3 -4
leaf_value=-0.021071699409328973 0.0025566033266739949 0.054510567579261961 -0.021320609852506868
leaf_weight=3538.2593475058675 38701.061558783054 3182.5985179543495 9516.20811457932
leaf_count=25323 393048 20952 103088
internal_value=0 0.0147196 -0.00215583
internal_weight=0 6720.86 48217.3
internal_count=542411 46275 496136
is_linear=0
shrinkage=0.15


Tree=37
num_leaves=4
num_cat=0
split_feature=0 2 8
split_gain=70.9321 67.8662 53.657
threshold=0.085000000000000006 1.0000000180025095e-35 1.0000000180025095e-35
decision_type=2 2 2
left_child=2 -2 -1
right_child=1 -3 -4
leaf_value=-0.029004331652801876 0.018792794156394836 -0.00010033355533345987 0.00083317505980242919
leaf_weight=3159.3898775987327 4730.8877603411674 44674.867431022227 2375.8323637209833
leaf_count=65481 30797 419698 26435
internal_value=0 0.00170879 -0.0161975
internal_weight=0 49405.8 5535.22
internal_count=542411 450495 91916
is_linear=0
shrinkage=0.15


Tree=38
num_leaves=4
num_cat=0
split_feature=4 3 4
split_gain=68.427 130.044 75.8546
threshold=76.500000000000014 38.500000000000007 78.500000000000014
decision_type=2 2 2
left_child=1 -1 -2
right_child=2 -3 -4
leaf_value=-0.015632059831887788 0.11540347459614367 0.0024009980969182496 0.0095747661877217446
leaf_weight=12416.801777277142 154.82544119283557 32677.063245490193 9689.2122333049774
leaf_count=131506 1299 330206 79400
internal_value=0 -0.00256449 0.0112392
internal_weight=0 45093.9 9844.04
internal_count=542411 461712 80699
is_linear=0
shrinkage=0.15


Tree=39
num_leaves=4
num_cat=0
split_feature=0 16 3
split_gain=65.6551 82.5623 76.8716
threshold=0.38500000000000006 1.0000000180025095e-35 40.500000000000007
decision_type=2 2 2
left_child=1 -1 -2
right_child=2 -3 -4
leaf_value=-0.018632380568595446 -0.005160341126789092 0.0023057371412940888 0.0087126650516403167
leaf_weight=8225.702121231705 14602.440031416714 8739.017163477838 23368.861228786409
leaf_count=115663 113561 112043 201144
internal_value=0 -0.00784655 0.00337759
internal_weight=0 16964.7 37971.3
internal_count=542411 227706 314705
is_linear=0
shrinkage=0.15


Tree=40
num_leaves=4
num_cat=0
split_feature=2 0 4
split_gain=64.7782 84.6919 32.8911
threshold=12.500000000000002 0.80500000000000016 96.500000000000014
decision_type=2 2 2
left_child=1 -1 -2
right_child=2 -3 -4
leaf_value=-0.0028017720666710208 -0.014109684476935296 0.010537434746477869 0.01712037663876103
leaf_weight=28187.502991765738 8643.0328788496554 17271.343815937638 831.80352576076984
leaf_count=307090 96015 133412 5894
internal_value=0 0.00226624 -0.011368
internal_weight=0 45458.8 9474.84
internal_count=542411 440502 101909
is_linear=0
shrinkage=0.15


Tree=41
num_leaves=4
num_cat=0
split_feature=4 3 3
split_gain=64.4722 108.408 53.1944
threshold=54.500000000000007 43.500000000000007 39.500000000000007
decision_type=2 2 2
left_child=2 -2 -1
right_child=1 -3 -4
leaf_value=-0.017575108322898658 -0.00017404961980675812 0.023313507834782411 -0.0015788720313179437
leaf_weight=5679.752811845392 16735.127266190946 6009.1223440952599 26507.043355815113
leaf_count=67204 154337 47642 273228
internal_value=0 0.00603146 -0.0044016
internal_weight=0 22744.2 32186.8
internal_count=542411 201979 340432
is_linear=0
shrinkage=0.15


Tree=42
num_leaves=4
num_cat=0
split_feature=2 16 8
split_gain=58.6984 329.652 171.41
threshold=1.0000000180025095e-35 1.0000000180025095e-35 1.0000000180025095e-35
decision_type=2 2 2
left_child=1 -1 -2
right_child=2 -3 -4
leaf_value=-0.01975987072820853 0.0024611005840501311 0.046001588918340282 -0.02019670984014629
leaf_weight=3453.4472141936421 38749.093811236322 3407.3540978133678 9319.2093445323408
leaf_count=25323 393048 20952 103088
internal_value=0 0.0129 -0.00193167
internal_weight=0 6860.8 48068.3
internal_count=542411 46275 496136
is_linear=0
shrinkage=0.15


Tree=43
num_leaves=4
num_cat=0
split_feature=4 3 8
split_gain=57.7181 77.0099 28.3245
threshold=95.500000000000014 42.500000000000007 1.0000000180025095e-35
decision_type=2 2 2
left_child=1 -1 -2
right_child=2 -3 -4
leaf_value=-0.0081813181012010926 0.025902776195639615 0.0035878137735250162 -0.004461390289248056
leaf_weight=21638.157579369843 2713.4022181816399 29652.026003666222 927.5072656609118
leaf_count=228476 17032 291768 5135
internal_value=0 -0.00137731 0.0181676
internal_weight=0 51290.2 3640.91
internal_count=542411 520244 22167
is_linear=0
shrinkage=0.15


Tree=44
num_leaves=4
num_cat=0
split_feature=2 0 4
split_gain=58.4047 70.188 26.4397
threshold=12.500000000000002 0.80500000000000016 111.50000000000001
decision_type=2 2 2
left_child=1 -1 -2
right_child=2 -3 -4
leaf_value=-0.0025012430990728226 -0.012126055326119165 0.0096107632276774772 0.038567283095114487
leaf_weight=28069.826054465026 9159.4622707590461 17461.654685355723 237.49485835805535
leaf_count=307090 100812 133412 1097
internal_value=0 0.0021438 -0.0108449
internal_weight=0 45531.5 9396.96
internal_count=542411 440502 101909
is_linear=0
shrinkage=0.15


Tree=45
num_leaves=4
num_cat=0
split_feature=4 4 2
split_gain=57.5301 193.344 56.3247
threshold=60.500000000000007 62.500000000000007 1.0000000180025095e-35
decision_type=2 2 2
left_child=2 -2 -1
right_child=1 -3 -4
leaf_value=0.011337649742518802 0.072591299160948045 0.0031666247562578084 -0.0058731798613063432
leaf_weight=4951.3288688659668 951.52883100137115 17545.041056998074 31477.98730673641
leaf_count=34610 7090 152542 348169
internal_value=0 0.00673808 -0.00353395
internal_weight=0 18496.6 36429.3
internal_count=542411 159632 382779
is_linear=0
shrinkage=0.15


Tree=46
num_leaves=4
num_cat=0
split_feature=0 4 0
split_gain=56.658 54.6339 48.0268
threshold=0.085000000000000006 57.500000000000007 0.075000000000000025
decision_type=2 2 2
left_child=2 -2 -1
right_child=1 -3 -4
leaf_value=-0.0051446950754141718 -0.0023926091749357612 0.0078656545220413664 -0.035698066440281055
leaf_weight=3711.9771398752928 30659.467737805098 18871.704829413444 1682.1463175415993
leaf_count=56210 308686 141809 35706
internal_value=0 0.00151586 -0.0146727
internal_weight=0 49531.2 5394.12
internal_count=542411 450495 91916
is_linear=0
shrinkage=0.15


Tree=47
num_leaves=4
num_cat=0
split_feature=2 0 4
split_gain=51.9667 56.5222 11.3319
threshold=14.500000000000002 0.21500000000000002 123.00000000000001
decision_type=2 2 2
left_child=1 -1 -2
right_child=2 -3 -4
leaf_value=-0.0088322886006434731 -0.014604148258446293 0.0039654793348310883 0.05291157085302569
leaf_weight=9648.0863758176565 5438.0455503799021 39780.36607054621 56.515194211155176
leaf_count=140501 60171 341453 286
internal_value=0 0.00146745 -0.0139097
internal_weight=0 49428.5 5494.56
internal_count=542411 481954 60457
is_linear=0
shrinkage=0.15


Tree=48
num_leaves=4
num_cat=0
split_feature=4 3 4
split_gain=47.388 92.0425 52.8446
threshold=76.500000000000014 38.500000000000007 78.500000000000014
decision_type=2 2 2
left_child=1 -1 -2
right_child=2 -3 -4
leaf_value=-0.013420231800376999 0.090080510248630438 0.0019438235661380354 0.0077664728260359878
leaf_weight=11967.07316711545 178.64922253042459 32872.520697187632 9902.2216551750898
leaf_count=131506 1299 330206 79400
internal_value=0 -0.00215663 0.00922521
internal_weight=0 44839.6 10080.9
internal_count=542411 461712 80699
is_linear=0
shrinkage=0.15


Tree=49
num_leaves=4
num_cat=0
split_feature=2 8 8
split_gain=47.055 302.511 149.042
threshold=1.0000000180025095e-35 1.0000000180025095e-35 1.0000000180025095e-35
decision_type=2 2 2
left_child=1 -1 -2
right_child=2 -3 -4
leaf_value=-0.03248554883395282 0.0023127238253020637 0.033651365004051352 -0.018998332236357222
leaf_weight=2342.7318575978279 38823.956333238631 4634.3063526675105 9117.9472621753812
leaf_count=16517 393048 29758 103088
internal_value=0 0.0114441 -0.00174037
internal_weight=0 6977.04 47941.9
internal_count=542411 46275 496136
is_linear=0
shrinkage=0.15


Tree=50
num_leaves=4
num_cat=0
split_feature=0 16 2
split_gain=47.7373 56.2851 48.8669
threshold=0.12500000000000003 1.0000000180025095e-35 12.500000000000002
decision_type=2 2 2
left_child=1 -1 -2
right_child=2 -3 -4
leaf_value=-0.025587608409259142 0.0038690907376492363 0.0010002433823399358 -0.0087272746160318628
leaf_weight=3371.1527613438666 39314.349322736263 3823.1222046986222 8412.3421256430447
leaf_count=59125 344260 55472 83554
internal_value=0 -0.0114585 0.00164885
internal_weight=0 7194.27 47726.7
internal_count=542411 114597 427814
is_linear=0
shrinkage=0.15


Tree=51
num_leaves=4
num_cat=0
split_feature=1 4 16
split_gain=43.0323 53.9096 18.4485
threshold=4.5000000000000009 76.500000000000014 1.0000000180025095e-35
decision_type=2 2 2
left_child=2 -2 -1
right_child=1 -3 -4
leaf_value=-0.020968639497672213 -0.00050707547252684768 0.013111434437047943 -0.0055151151647003047
leaf_weight=2264.6096983067691 37244.163061104715 7933.2888942137361 7476.8734384067357
leaf_count=22635 386537 63481 69758
internal_value=0 0.00188437 -0.00910761
internal_weight=0 45177.5 9741.48
internal_count=542411 450018 92393
is_linear=0
shrinkage=0.15


Tree=52
num_leaves=4
num_cat=0
split_feature=2 0 4
split_gain=42.5668 48.3422 10.5059
threshold=14.500000000000002 0.46500000000000002 57.500000000000007
decision_type=2 2 2
left_child=1 -1 -2
right_child=2 -3 -4
leaf_value=-0.0049120724607846118 -0.018501341127637579 0.0048418841545297868 -0.0051319448111737612
leaf_weight=17907.108139332384 3059.6686366051435 31620.573833763599 2329.291600599885
leaf_count=231229 38070 250725 22387
internal_value=0 0.00131527 -0.0127226
internal_weight=0 49527.7 5388.96
internal_count=542411 481954 60457
is_linear=0
shrinkage=0.15


Tree=53
num_leaves=4
num_cat=0
split_feature=2 8 8
split_gain=43.1305 259.718 130.645
threshold=1.0000000180025095e-35 1.0000000180025095e-35 1.0000000180025095e-35
decision_type=2 2 2
left_child=1 -1 -2
right_child=2 -3 -4
leaf_value=-0.030949270033544581 0.0020889328286579126 0.030803062888804973 -0.018002533998588255
leaf_weight=2260.0673562735319 38937.41711162962 4759.672460205853 8957.2038193456829
leaf_count=16517 393048 29758 103088
internal_value=0 0.0109214 -0.00166855
internal_weight=0 7019.74 47894.6
internal_count=542411 46275 496136
is_linear=0
shrinkage=0.15


Tree=54
num_leaves=4
num_cat=0
split_feature=0 5 0
split_gain=41.9609 48.7321 41.9004
threshold=0.085000000000000006 394.50000000000006 0.075000000000000025
decision_type=2 2 2
left_child=2 -2 -1
right_child=1 -3 -4
leaf_value=-0.0040040346985562485 -0.0033442072866099958 0.0060524835518536253 -0.03323148622659073
leaf_weight=3651.9050261601806 25210.283090189099 24472.227076344192 1581.5762601755559
leaf_count=56210 232456 218039 35706
internal_value=0 0.00128434 -0.0128367
internal_weight=0 49682.5 5233.48
internal_count=542411 450495 91916
is_linear=0
shrinkage=0.15


Tree=55
num_leaves=4
num_cat=0
split_feature=3 4 4
split_gain=40.2197 86.9913 72.0452
threshold=42.500000000000007 51.500000000000007 85.500000000000014
decision_type=2 2 2
left_child=2 -2 -1
right_child=1 -3 -4
leaf_value=-0.0090395458303239376 -0.00098376710747865876 0.017660914486834819 0.010319335462928469
leaf_weight=18825.560717009008 23019.146590784192 7453.7125676758587 5615.6834312714636
leaf_count=205584 236998 58556 41273
internal_value=0 0.00357675 -0.0045916
internal_weight=0 30472.9 24441.2
internal_count=542411 295554 246857
is_linear=0
shrinkage=0.15


Tree=56
num_leaves=4
num_cat=0
split_feature=2 0 4
split_gain=38.3432 49.5949 17.7472
threshold=12.500000000000002 0.87500000000000011 111.50000000000001
decision_type=2 2 2
left_child=1 -1 -2
right_child=2 -3 -4
leaf_value=-0.001909301522056261 -0.01006401604063133 0.0084417694059402484 0.029905614391084988
leaf_weight=29771.215716671199 8866.2913837358356 16018.412816137075 257.20014371350408
leaf_count=319955 100812 120547 1097
internal_value=0 0.00171177 -0.00893723
internal_weight=0 45789.6 9123.49
internal_count=542411 440502 101909
is_linear=0
shrinkage=0.15


Tree=57
num_leaves=4
num_cat=0
split_feature=2 16 8
split_gain=37.7523 243.38 114.371
threshold=1.0000000180025095e-35 1.0000000180025095e-35 1.0000000180025095e-35
decision_type=2 2 2
left_child=1 -1 -2
right_child=2 -3 -4
leaf_value=-0.018814502882140014 0.001915390443789244 0.036845795897645674 -0.017012560500441757
leaf_weight=3394.8054866790771 39025.859447741881 3687.5662936717272 8802.9217885397375
leaf_count=25323 393048 20952 103088
internal_value=0 0.010166 -0.00156831
internal_weight=0 7082.37 47828.8
internal_count=542411 46275 496136
is_linear=0
shrinkage=0.15


Tree=58
num_leaves=4
num_cat=0
split_feature=1 4 16
split_gain=38.6603 42.7833 14.5779
threshold=4.5000000000000009 61.500000000000007 1.0000000180025095e-35
decision_type=2 2 2
left_child=2 -2 -1
right_child=1 -3 -4
leaf_value=-0.019395593602390893 -0.0014716958268292254 0.0083202292942107948 -0.0055041937729565348
leaf_weight=2199.9483834821731 30196.764857662842 15040.208961836994 7475.6896781846881
leaf_count=22635 321963 128055 69758
internal_value=0 0.00178388 -0.00866268
internal_weight=0 45237 9675.64
internal_count=542411 450018 92393
is_linear=0
shrinkage=0.15


Tree=59
num_leaves=4
num_cat=0
split_feature=0 5 0
split_gain=36.269 40.2289 37.5135
threshold=0.085000000000000006 394.50000000000006 0.075000000000000025
decision_type=2 2 2
left_child=2 -2 -1
right_child=1 -3 -4
leaf_value=-0.0037366086961437505 -0.003038306714532537 0.0054933116229406538 -0.031751389073956832
leaf_weight=3638.1015293393284 25102.348801471293 24643.319734048098 1526.8012839537114
leaf_count=56210 232456 218039 35706
internal_value=0 0.00118814 -0.0120181
internal_weight=0 49745.7 5164.9
internal_count=542411 450495 91916
is_linear=0
shrinkage=0.15


Tree=60
num_leaves=4
num_cat=0
split_feature=3 4 4
split_gain=35.9587 69.0369 59.1705
threshold=42.500000000000007 51.500000000000007 80.500000000000014
decision_type=2 2 2
left_child=2 -2 -1
right_child=1 -3 -4
leaf_value=-0.0089937790618621546 -0.0007314459794321626 0.015754844931395642 0.0074215152390810137
leaf_weight=17468.007941724733 22940.397478498518 7611.1469617150724 6889.3266626503319
leaf_count=193750 236998 58556 53107
internal_value=0 0.0033757 -0.00435081
internal_weight=0 30551.5 24357.3
internal_count=542411 295554 246857
is_linear=0
shrinkage=0.15


Tree=61
num_leaves=4
num_cat=0
split_feature=2 0 2
split_gain=34.8848 35.6847 9.53097
threshold=14.500000000000002 0.46500000000000002 17.500000000000004
decision_type=2 2 2
left_child=1 -1 -2
right_child=2 -3 -4
leaf_value=-0.0042102723247119484 -0.0071275014667509162 0.0041844225574683685 -0.020631413043477181
leaf_weight=17728.285571968183 3531.7541486397386 31884.826105490327 1763.0222129710019
leaf_count=231229 40187 250725 20270
internal_value=0 0.00118474 -0.011624
internal_weight=0 49613.1 5294.78
internal_count=542411 481954 60457
is_linear=0
shrinkage=0.15


Tree=62
num_leaves=4
num_cat=0
split_feature=2 8 8
split_gain=34.0469 214.486 100.17
threshold=1.0000000180025095e-35 1.0000000180025095e-35 1.0000000180025095e-35
decision_type=2 2 2
left_child=1 -1 -2
right_child=2 -3 -4
leaf_value=-0.02949042587045983 0.0017416786503856633 0.026932046628350907 -0.016084862758523104
leaf_weight=2186.794462069869 39114.791534977034 4941.3407747969031 8663.0923843402416
leaf_count=16517 393048 29758 103088
internal_value=0 0.00962256 -0.00149063
internal_weight=0 7128.14 47777.9
internal_count=542411 46275 496136
is_linear=0
shrinkage=0.15


Tree=63
num_leaves=4
num_cat=0
split_feature=1 4 16
split_gain=34.2284 32.5693 12.674
threshold=4.5000000000000009 61.500000000000007 1.0000000180025095e-35
decision_type=2 2 2
left_child=2 -2 -1
right_child=1 -3 -4
leaf_value=-0.018306983318104604 -0.0011862822317572485 0.0073285630734877868 -0.0052505267782908789
leaf_weight=2157.3201804719865 30079.18789899908 15222.505873503163 7448.3007037453353
leaf_count=22635 321963 128055 69758
internal_value=0 0.00167492 -0.00818287
internal_weight=0 45301.7 9605.62
internal_count=542411 450018 92393
is_linear=0
shrinkage=0.15


Tree=64
num_leaves=4
num_cat=0
split_feature=3 27 4
split_gain=32.4739 57.2492 50.2594
threshold=42.500000000000007 1.0000000180025095e-35 90.500000000000014
decision_type=2 2 2
left_child=2 -2 -1
right_child=1 -3 -4
leaf_value=-0.0074041451530012219 -0.00052556456205322803 0.014488239351636843 0.01013662771438191
leaf_weight=19770.838231584057 23018.50521415472 7601.4850851595402 4514.6541111730039
leaf_count=216981 223702 71852 29876
internal_value=0 0.00320165 -0.00414333
internal_weight=0 30620 24285.5
internal_count=542411 295554 246857
is_linear=0
shrinkage=0.15


Tree=65
num_leaves=4
num_cat=0
split_feature=2 0 4
split_gain=33.0753 42.5389 19.803
threshold=11.500000000000002 0.97500000000000009 95.500000000000014
decision_type=2 2 2
left_child=1 -1 -2
right_child=2 -3 -4
leaf_value=-0.0012073533356583464 -0.00926338069516916 0.0090627800827913357 0.011714088056855216
leaf_weight=30521.786306323484 10346.58570230566 12913.735105715692 1122.3652653694153
leaf_count=320801 118053 96521 7036
internal_value=0 0.00184604 -0.0072105
internal_weight=0 43435.5 11469
internal_count=542411 417322 125089
is_linear=0
shrinkage=0.15


Tree=66
num_leaves=4
num_cat=0
split_feature=2 16 8
split_gain=30.5681 194.664 84.1513
threshold=1.0000000180025095e-35 1.0000000180025095e-35 1.0000000180025095e-35
decision_type=2 2 2
left_child=1 -1 -2
right_child=2 -3 -4
leaf_value=-0.017543521309030776 0.0015153362826666836 0.032012868469368322 -0.01494896446212356
leaf_weight=3319.034326672554 39231.277950340882 3854.9055625274777 8497.8154835160822
leaf_count=25323 393048 20952 103088
internal_value=0 0.00908553 -0.00141601
internal_weight=0 7173.94 47729.1
internal_count=542411 46275 496136
is_linear=0
shrinkage=0.15


Tree=67
num_leaves=4
num_cat=0
split_feature=0 16 3
split_gain=31.2876 38.9728 34.7819
threshold=0.12500000000000003 1.0000000180025095e-35 38.500000000000007
decision_type=2 2 2
left_child=1 -1 -2
right_child=2 -3 -4
leaf_value=-0.021852333628614603 -0.004249277639668027 0.00069592126517988972 0.0042516385480753528
leaf_weight=3131.9189453553408 16529.392017915845 3838.5971524789929 31404.213503669947
leaf_count=59125 144009 55472 283805
internal_value=0 -0.00943522 0.00132019
internal_weight=0 6970.52 47933.6
internal_count=542411 114597 427814
is_linear=0
shrinkage=0.15


Tree=68
num_leaves=4
num_cat=0
split_feature=1 4 16
split_gain=30.2221 30.1325 9.50873
threshold=4.5000000000000009 61.500000000000007 1.0000000180025095e-35
decision_type=2 2 2
left_child=2 -2 -1
right_child=1 -3 -4
leaf_value=-0.016644533779343332 -0.0011855878795605089 0.0069933977644793957 -0.0052055754996850803
leaf_weight=2095.3175212070346 30078.903178468347 15285.122255563736 7443.4681532457471
leaf_count=22635 321963 128055 69758
internal_value=0 0.00157027 -0.00771829
internal_weight=0 45364 9538.79
internal_count=542411 450018 92393
is_linear=0
shrinkage=0.15


Tree=69
num_leaves=4
num_cat=0
split_feature=2 0 3
split_gain=29.8231 29.5772 14.5061
threshold=12.500000000000002 0.74500000000000011 71.500000000000014
decision_type=2 2 2
left_child=1 -1 -2
right_child=2 -3 -4
leaf_value=-0.0018545690734799638 -0.0093653617586703861 0.0058191881450753201 0.017595351369651277
leaf_weight=25810.501470701769 8513.1953387409449 20103.481920845807 474.02811145037413
leaf_count=293083 96785 147419 5124
internal_value=0 0.00150539 -0.00794333
internal_weight=0 45914 8987.22
internal_count=542411 440502 101909
is_linear=0
shrinkage=0.15


Tree=70
num_leaves=4
num_cat=0
split_feature=2 0 4
split_gain=28.3199 26.4842 7.15985
threshold=17.500000000000004 0.21500000000000002 60.500000000000007
decision_type=2 2 2
left_child=1 -1 -2
right_child=2 -3 -4
leaf_value=-0.0064635141513855604 -0.026302866693702485 0.0021643115725469473 -0.0060935199223565413
leaf_weight=9817.08277599141 1095.7783205844462 43370.627804171294 616.27964753098786
leaf_count=151030 14304 371111 5966
internal_value=0 0.000571837 -0.0190282
internal_weight=0 53187.7 1712.06
internal_count=542411 522141 20270
is_linear=0
shrinkage=0.15


Tree=71
num_leaves=4
num_cat=0
split_feature=2 8 8
split_gain=29.301 182.709 72.4409
threshold=1.0000000180025095e-35 1.0000000180025095e-35 1.0000000180025095e-35
decision_type=2 2 2
left_child=1 -1 -2
right_child=2 -3 -4
leaf_value=-0.028083960142720969 0.0013137370044182656 0.024351058089395528 -0.014052721683777874
leaf_weight=2120.5143727138638 39335.616091763601 5070.3744588196278 8371.794207137078
leaf_count=16517 393048 29758 103088
internal_value=0 0.00888855 -0.0013828
internal_weight=0 7190.89 47707.4
internal_count=542411 46275 496136
is_linear=0
shrinkage=0.15


Tree=72
num_leaves=4
num_cat=0
split_feature=4 3 0
split_gain=28.0183 30.2088 8.0949
threshold=119.50000000000001 38.500000000000007 0.90500000000000014
decision_type=2 2 2
left_child=1 -1 -2
right_child=2 -3 -4
leaf_value=-0.0052276276595029742 0.024462437586318733 0.0022122404056311006 0.069063272562668976
leaf_weight=18701.225222814828 306.21453820168972 35761.391384387389 130.61553871631622
leaf_count=190852 1553 349747 259
internal_value=0 -0.000342441 0.0377984
internal_weight=0 54462.6 436.83
internal_count=542411 540599 1812
is_linear=0
shrinkage=0.15


Tree=73
num_leaves=4
num_cat=0
split_feature=5 3 0
split_gain=26.8691 44.768 25.6142
threshold=721.50000000000011 40.500000000000007 0.085000000000000006
decision_type=2 2 2
left_child=1 -1 -2
right_child=2 -3 -4
leaf_value=-0.0099583460891159645 -0.010611421310204575 0.0015144064586281483 0.0057693859684620234
leaf_weight=12215.352914059535 2409.341514961794 20488.222072908655 19785.145195420831
leaf_count=127033 42976 199660 172742
internal_value=0 -0.00277087 0.00399115
internal_weight=0 32703.6 22194.5
internal_count=542411 326693 215718
is_linear=0
shrinkage=0.15


Tree=74
num_leaves=4
num_cat=0
split_feature=4 0 2
split_gain=28.0172 56.0437 25.9499
threshold=51.500000000000007 0.9850000000000001 1.0000000180025095e-35
decision_type=2 2 2
left_child=2 -2 -1
right_child=1 -3 -4
leaf_value=0.0076008477186062812 -0.00032505599323828734 0.016277158866458308 -0.0049673439987884321
leaf_weight=4323.3751551620662 19068.874861849472 6018.8428748436272 25486.025502460077
leaf_count=29549 188010 34306 290546
internal_value=0 0.00365801 -0.00314453
internal_weight=0 25087.7 29809.4
internal_count=542411 222316 320095
is_linear=0
shrinkage=0.15


Tree=75
num_leaves=4
num_cat=0
split_feature=1 3 8
split_gain=26.3702 26.2898 8.72784
threshold=4.5000000000000009 20.500000000000004 1.0000000180025095e-35
decision_type=2 2 2
left_child=2 -2 -1
right_child=1 -3 -4
leaf_value=-0.0039692475009610907 0.034460229363994822 0.0010715942058499054 -0.013584506606973279
leaf_weight=6253.6738320365548 536.95328612625599 44889.192641619593 3216.575057649985
leaf_count=62569 4142 445876 29824
internal_value=0 0.00146626 -0.00723508
internal_weight=0 45426.1 9470.25
internal_count=542411 450018 92393
is_linear=0
shrinkage=0.15


Tree=76
num_leaves=4
num_cat=0
split_feature=2 0 3
split_gain=25.7892 25.9452 17.2256
threshold=11.500000000000002 0.46500000000000002 71.500000000000014
decision_type=2 2 2
left_child=1 -1 -2
right_child=2 -3 -4
leaf_value=-0.0032292524531217837 -0.0077845715127273134 0.0043857439032043855 0.018419599241753359
leaf_weight=15791.790728650987 10737.861796706915 27769.76951026544 595.754514798522
leaf_count=204552 118991 212770 6098
internal_value=0 0.00162518 -0.00640714
internal_weight=0 43561.6 11333.6
internal_count=542411 417322 125089
is_linear=0
shrinkage=0.15


Tree=77
num_leaves=4
num_cat=0
split_feature=2 8 8
split_gain=24.3318 158.455 61.4413
threshold=1.0000000180025095e-35 1.0000000180025095e-35 1.0000000180025095e-35
decision_type=2 2 2
left_child=1 -1 -2
right_child=2 -3 -4
leaf_value=-0.027008175126943933 0.0011981325923929905 0.022053976745263097 -0.013048428015881077
leaf_weight=2072.4681366346776 39395.698237847537 5191.0171905085444 8234.9480654671788
leaf_count=16517 393048 29758 103088
internal_value=0 0.00805522 -0.00126498
internal_weight=0 7263.49 47630.6
internal_count=542411 46275 496136
is_linear=0
shrinkage=0.15


Tree=78
num_leaves=4
num_cat=0
split_feature=2 0 4
split_gain=24.0353 22.7576 6.43814
threshold=17.500000000000004 0.085000000000000006 60.500000000000007
decision_type=2 2 2
left_child=1 -1 -2
right_child=2 -3 -4
leaf_value=-0.0092315370652451857 -0.024790156448713498 0.0015096451965683996 -0.0054622212858015107
leaf_weight=4886.8875913433731 1062.4247194062918 48335.180218152702 610.64323524199426
leaf_count=88985 14304 433156 5966
internal_value=0 0.000523382 -0.0177358
internal_weight=0 53222.1 1673.07
internal_count=542411 522141 20270
is_linear=0
shrinkage=0.15


Tree=79
num_leaves=4
num_cat=0
split_feature=4 3 2
split_gain=23.7473 53.2997 21.3548
threshold=51.500000000000007 35.500000000000007 1.0000000180025095e-35
decision_type=2 2 2
left_child=2 -2 -1
right_child=1 -3 -4
leaf_value=0.0067840678537327065 -0.0031569055236495619 0.010667183962360971 -0.0045733172151017614
leaf_weight=4366.8249393589795 13317.512228766456 11867.1862146575 25342.390353510156
leaf_count=29549 124579 97737 290546
internal_value=0 0.00335709 -0.00290395
internal_weight=0 25184.7 29709.2
internal_count=542411 222316 320095
is_linear=0
shrinkage=0.15


Tree=80
num_leaves=4
num_cat=0
split_feature=4 3 8
split_gain=23.1935 27.0404 13.3297
threshold=108.50000000000001 36.500000000000007 1.0000000180025095e-35
decision_type=2 2 2
left_child=1 -1 -2
right_child=2 -3 -4
leaf_value=-0.0057355910825455441 0.027944586314048014 0.0016699755476882602 -0.014023757480436301
leaf_weight=15660.588760219514 984.06381041184068 38042.736258337274 205.90751653537154
leaf_count=161102 3711 376599 999
internal_value=0 -0.000489584 0.0206826
internal_weight=0 53703.3 1189.97
internal_count=542411 537701 4710
is_linear=0
shrinkage=0.15


Tree=81
num_leaves=4
num_cat=0
split_feature=1 4 8
split_gain=22.8938 23.6537 8.26541
threshold=4.5000000000000009 61.500000000000007 1.0000000180025095e-35
decision_type=2 2 2
left_child=2 -2 -1
right_child=1 -3 -4
leaf_value=-0.0035841996599214766 -0.001089349084944466 0.0061334093168922688 -0.012980499103846242
leaf_weight=6219.7127525452524 30039.464167812839 15448.169005054981 3184.9879792612046
leaf_count=62569 321963 128055 29824
internal_value=0 0.00136359 -0.00676634
internal_weight=0 45487.6 9404.7
internal_count=542411 450018 92393
is_linear=0
shrinkage=0.15


Tree=82
num_leaves=4
num_cat=0
split_feature=3 27 5
split_gain=22.2321 40.9911 27.1802
threshold=68.500000000000014 1.0000000180025095e-35 472.50000000000006
decision_type=2 2 2
left_child=2 -2 -1
right_child=1 -3 -4
leaf_value=-0.0042618107555608652 0.00018084454996822289 0.030990380283651663 0.002707545676546188
leaf_weight=26285.142140844837 3003.2688662745059 1436.316051453352 24166.613946419209
leaf_count=266345 27155 12529 236382
internal_value=0 0.0101485 -0.000923458
internal_weight=0 4439.58 50451.8
internal_count=542411 39684 502727
is_linear=0
shrinkage=0.15


Tree=83
num_leaves=4
num_cat=0
split_feature=2 0 3
split_gain=21.9161 22.3008 15.0125
threshold=11.500000000000002 0.87500000000000011 39.500000000000007
decision_type=2 2 2
left_child=1 -1 -2
right_child=2 -3 -4
leaf_value=-0.0010171506742034917 -0.012762536328508964 0.006072384115373388 -0.001537022285199323
leaf_weight=28174.517911767587 4403.3836927339435 15461.733176238835 6851.1953731458634
leaf_count=305746 49631 111576 75458
internal_value=0 0.0014949 -0.00592903
internal_weight=0 43636.3 11254.6
internal_count=542411 417322 125089
is_linear=0
shrinkage=0.15


Tree=84
num_leaves=4
num_cat=0
split_feature=3 3 4
split_gain=22.3293 24.348 6.98458
threshold=20.500000000000004 36.500000000000007 99.500000000000014
decision_type=2 2 2
left_child=2 -2 -1
right_child=1 -3 -4
leaf_value=0.0094490228504596641 -0.0053563531289372796 0.0016549379975018049 0.039172008075225417
leaf_weight=316.30934477411211 15687.50716537796 38479.705752221867 406.47615403681993
leaf_count=2773 159054 377854 2730
internal_value=0 -0.00037562 0.0261645
internal_weight=0 54167.2 722.785
internal_count=542411 536908 5503
is_linear=0
shrinkage=0.15


Tree=85
num_leaves=4
num_cat=0
split_feature=4 0 2
split_gain=21.789 40.8298 19.1883
threshold=51.500000000000007 0.9850000000000001 1.0000000180025095e-35
decision_type=2 2 2
left_child=2 -2 -1
right_child=1 -3 -4
leaf_value=0.0063733214860194898 -0.00022440305385929509 0.01380092833489727 -0.0043715949434402568
leaf_weight=4389.0068895146251 19043.029848247766 6187.653150126338 25269.48102530092
leaf_count=29549 188010 34306 290546
internal_value=0 0.00321521 -0.00278151
internal_weight=0 25230.7 29658.5
internal_count=542411 222316 320095
is_linear=0
shrinkage=0.15


Tree=86
num_leaves=4
num_cat=0
split_feature=36 5 0
split_gain=21.473 24.0315 4.90229
threshold=1.0000000180025095e-35 394.50000000000006 0.085000000000000006
decision_type=2 2 2
left_child=1 -1 -2
right_child=2 -3 -4
leaf_value=-0.0024972644888183872 -0.028551082876638389 0.0039682066145600358 -0.0099318491412152751
leaf_weight=26099.265723766759 359.18982865661383 25644.309449909255 2785.9555844888091
leaf_count=262852 6986 247389 25184
internal_value=0 0.000707047 -0.0120582
internal_weight=0 51743.6 3145.15
internal_count=542411 510241 32170
is_linear=0
shrinkage=0.15


Tree=87
num_leaves=4
num_cat=0
split_feature=2 0 4
split_gain=20.1278 19.3592 5.429
threshold=17.500000000000004 0.12500000000000003 60.500000000000007
decision_type=2 2 2
left_child=1 -1 -2
right_child=2 -3 -4
leaf_value=-0.0070964720827753685 -0.02306836983745654 0.0015595603636826584 -0.0051854163760792884
leaf_weight=6641.8045874722302 1026.8492737729102 46611.088158473372 608.20422801747918
leaf_count=111090 14304 411051 5966
internal_value=0 0.000479963 -0.0164163
internal_weight=0 53252.9 1635.05
internal_count=542411 522141 20270
is_linear=0
shrinkage=0.15


Tree=88
num_leaves=4
num_cat=0
split_feature=1 3 16
split_gain=19.66 20.9542 7.85263
threshold=4.5000000000000009 23.500000000000004 1.0000000180025095e-35
decision_type=2 2 2
left_child=2 -2 -1
right_child=1 -3 -4
leaf_value=-0.014564383341881386 0.017110730745553797 0.00061002252598257943 -0.0040048399466492586
leaf_weight=2022.5817519016564 1802.9766094777733 43744.945983419195 7316.6625159457326
leaf_count=22635 13778 436240 69758
internal_value=0 0.00126319 -0.0062917
internal_weight=0 45547.9 9339.24
internal_count=542411 450018 92393
is_linear=0
shrinkage=0.15


Tree=89
num_leaves=4
num_cat=0
split_feature=2 16 8
split_gain=19.5341 150.055 50.5675
threshold=1.0000000180025095e-35 1.0000000180025095e-35 1.0000000180025095e-35
decision_type=2 2 2
left_child=1 -1 -2
right_child=2 -3 -4
leaf_value=-0.016732742150415765 0.0010815581391460344 0.026412272104553016 -0.011937566298402711
leaf_weight=3272.4409289583564 39456.470890816301 4068.8773558735847 8088.6993626207113
leaf_count=25323 393048 20952 103088
internal_value=0 0.0071801 -0.00113334
internal_weight=0 7341.32 47545.2
internal_count=542411 46275 496136
is_linear=0
shrinkage=0.15


Tree=90
num_leaves=4
num_cat=0
split_feature=0 0 5
split_gain=18.532 30.7087 22.6877
threshold=0.085000000000000006 0.075000000000000025 394.50000000000006
decision_type=2 2 2
left_child=1 -1 -2
right_child=2 -3 -4
leaf_value=-0.0013517802982976896 -0.002370086381907575 -0.027661056280527341 0.0040220339416418135
leaf_weight=3519.4698269367218 24869.758349046111 1393.4346286524087 25105.136693779379
leaf_count=56210 232456 35706 218039
internal_value=0 -0.00881381 0.000841027
internal_weight=0 4912.9 49974.9
internal_count=542411 91916 450495
is_linear=0
shrinkage=0.15


Tree=91
num_leaves=4
num_cat=0
split_feature=36 4 2
split_gain=18.5935 19.881 4.78521
threshold=1.0000000180025095e-35 108.50000000000001 9.5000000000000018
decision_type=2 2 2
left_child=1 -1 -2
right_child=2 -3 -4
leaf_value=0.00020925689053270509 -0.0077297341463191636 0.020088736424311252 -0.021017853051998731
leaf_weight=50622.479419905692 2273.8826830405742 1157.7925066314638 833.17837813869119
leaf_count=505873 22839 4368 9331
internal_value=0 0.000653757 -0.011293
internal_weight=0 51780.3 3107.06
internal_count=542411 510241 32170
is_linear=0
shrinkage=0.15


Tree=92
num_leaves=4
num_cat=0
split_feature=2 3 3
split_gain=18.3829 17.7196 7.2984
threshold=14.500000000000002 85.500000000000014 42.500000000000007
decision_type=2 2 2
left_child=1 -1 -2
right_child=2 -3 -4
leaf_value=0.00070914457640706161 -0.014816102676479365 0.056544972018086906 -0.003380108944732427
leaf_weight=49703.485122844577 2325.2231277935207 128.21220549941063 2729.6627065073699
leaf_count=480991 28259 963 32198
internal_value=0 0.000852805 -0.00864061
internal_weight=0 49831.7 5054.89
internal_count=542411 481954 60457
is_linear=0
shrinkage=0.15


Tree=93
num_leaves=4
num_cat=0
split_feature=1 4 8
split_gain=17.5591 18.1862 7.29929
threshold=4.5000000000000009 61.500000000000007 1.0000000180025095e-35
decision_type=2 2 2
left_child=2 -2 -1
right_child=1 -3 -4
leaf_value=-0.0029686404745556333 -0.00096992900062034515 0.0053445559525762262 -0.01186444742041921
leaf_weight=6166.1802263911813 29990.668957669288 15600.818187568337 3128.226224405691
leaf_count=62569 321963 128055 29824
internal_value=0 0.00119081 -0.00596271
internal_weight=0 45591.5 9294.41
internal_count=542411 450018 92393
is_linear=0
shrinkage=0.15


Tree=94
num_leaves=4
num_cat=0
split_feature=3 27 2
split_gain=17.7168 33.6857 22.7385
threshold=68.500000000000014 1.0000000180025095e-35 1.0000000180025095e-35
decision_type=2 2 2
left_child=2 -2 -1
right_child=1 -3 -4
leaf_value=0.0072894262869424757 -0.00011205289385652605 0.027483650535869163 -0.0020765315823924307
leaf_weight=6731.7033672556281 3015.0959480050951 1485.7100106645375 43652.738717075437
leaf_count=42480 27155 12529 460247
internal_value=0 0.00899725 -0.000825176
internal_weight=0 4500.81 50384.4
internal_count=542411 39684 502727
is_linear=0
shrinkage=0.15


Tree=95
num_leaves=4
num_cat=0
split_feature=2 0 4
split_gain=16.6123 18.1057 13.2057
threshold=11.500000000000002 0.46500000000000002 95.500000000000014
decision_type=2 2 2
left_child=1 -1 -2
right_child=2 -3 -4
leaf_value=-0.0027829007408806451 -0.0069402922496749255 0.0035793526066488571 0.010072459156270251
leaf_weight=15693.489281538874 9990.74674840644 28056.615976467729 1144.1545492634177
leaf_count=204552 118053 212770 7036
internal_value=0 0.00129716 -0.00519217
internal_weight=0 43750.1 11134.9
internal_count=542411 417322 125089
is_linear=0
shrinkage=0.15


Tree=96
num_leaves=4
num_cat=0
split_feature=3 27 2
split_gain=16.3467 42.0007 38.7824
threshold=42.500000000000007 1.0000000180025095e-35 1.0000000180025095e-35
decision_type=2 2 2
left_child=2 -2 -1
right_child=1 -3 -4
leaf_value=0.013578434902720812 -0.00095987159167191323 0.01174028401119276 -0.0051755336203677098
leaf_weight=2812.0881133563817 23154.468478156254 7843.7326780073345 21074.19323118031
leaf_count=18369 223702 71852 228488
internal_value=0 0.00225375 -0.00296766
internal_weight=0 30998.2 23886.3
internal_count=542411 295554 246857
is_linear=0
shrinkage=0.15


Tree=97
num_leaves=4
num_cat=0
split_feature=4 3 3
split_gain=17.4571 36.2835 18.5259
threshold=51.500000000000007 35.500000000000007 25.500000000000004
decision_type=2 2 2
left_child=2 -2 -1
right_child=1 -3 -4
leaf_value=0.0765666172701161 -0.0025704261116221874 0.0087910261757252039 -0.0026750544479651763
leaf_weight=66.532316459342837 13208.909174377099 12134.537690455094 29474.574786111712
leaf_count=920 124579 97737 319175
internal_value=0 0.00286948 -0.00249659
internal_weight=0 25343.4 29541.1
internal_count=542411 222316 320095
is_linear=0
shrinkage=0.15


Tree=98
num_leaves=4
num_cat=0
split_feature=3 3 0
split_gain=16.879 19.9359 6.12597
threshold=20.500000000000004 36.500000000000007 0.43500000000000005
decision_type=2 2 2
left_child=2 -2 -1
right_child=1 -3 -4
leaf_value=0.037525744549393204 -0.0048575966166947262 0.0015011033597865601 0.010256610863270637
leaf_weight=332.10270923748612 15575.13860918209 38557.605874940753 419.49671331048012
leaf_count=3510 159054 377854 1993
internal_value=0 -0.000328429 0.0223058
internal_weight=0 54132.7 751.599
internal_count=542411 536908 5503
is_linear=0
shrinkage=0.15


Tree=99
num_leaves=4
num_cat=0
split_feature=4 0 3
split_gain=15.9309 32.0903 15.1276
threshold=51.500000000000007 0.9850000000000001 39.500000000000007
decision_type=2 2 2
left_child=2 -2 -1
right_child=1 -3 -4
leaf_value=-0.01067852228790213 -0.00033221881633149303 0.01200367831686147 -0.00099665809035115113
leaf_weight=4240.7629112415016 19070.716758521274 6316.2295140624046 25256.10652494058
leaf_count=56317 188010 34306 263778
internal_value=0 0.00273693 -0.00238862
internal_weight=0 25386.9 29496.9
internal_count=542411 222316 320095
is_linear=0
shrinkage=0.15


Tree=100
num_leaves=4
num_cat=0
split_feature=2 36 4
split_gain=15.8453 15.5254 4.65272
threshold=17.500000000000004 1.0000000180025095e-35 60.500000000000007
decision_type=2 2 2
left_child=1 -1 -2
right_child=2 -3 -4
leaf_value=0.0010496524705117262 -0.021098658162485542 -0.010034327479420962 -0.0043649970966269068
leaf_weight=50279.697037678212 988.96522982232273 3013.8021426219493 601.08838713355362
leaf_count=490667 14304 31474 5966
internal_value=0 0.000422842 -0.0147728
internal_weight=0 53293.5 1590.05
internal_count=542411 522141 20270
is_linear=0
shrinkage=0.15


Tree=101
num_leaves=4
num_cat=0
split_feature=26 5 3
split_gain=15.4788 19.8245 8.30436
threshold=1.0000000180025095e-35 721.50000000000011 39.500000000000007
decision_type=2 2 2
left_child=1 -1 -2
right_child=2 -3 -4
leaf_value=-0.0032203386921139457 -0.00074500828906040671 0.0027514411408520799 0.014436013683774658
leaf_weight=29519.083317218348 1212.32195295766 21703.99486268498 2447.6009300369769
leaf_count=299880 11469 208876 22186
internal_value=0 -0.000690005 0.00940741
internal_weight=0 51223.1 3659.92
internal_count=542411 508756 33655
is_linear=0
shrinkage=0.15


Tree=102
num_leaves=4
num_cat=0
split_feature=0 0 5
split_gain=15.2515 26.6729 18.0126
threshold=0.085000000000000006 0.075000000000000025 394.50000000000006
decision_type=2 2 2
left_child=1 -1 -2
right_child=2 -3 -4
leaf_value=-0.0011588700729711599 -0.0021099591303715263 -0.025997563020491214 0.0035828639293121133
leaf_weight=3510.2109818607569 24780.375871364027 1345.6318307947367 25246.360357638448
leaf_count=56210 232456 35706 218039
internal_value=0 -0.00804207 0.000762966
internal_weight=0 4855.84 50026.7
internal_count=542411 91916 450495
is_linear=0
shrinkage=0.15


Tree=103
num_leaves=4
num_cat=0
split_feature=1 3 8
split_gain=15.2989 16.3543 6.73625
threshold=4.5000000000000009 23.500000000000004 1.0000000180025095e-35
decision_type=2 2 2
left_child=2 -2 -1
right_child=1 -3 -4
leaf_value=-0.002704613547871717 0.014938320084724078 0.00052815018489546278 -0.011282049849234812
leaf_weight=6143.5003004036844 1846.7759530302137 43792.689248720184 3099.401773635298
leaf_count=62569 13778 436240 29824
internal_value=0 0.00111125 -0.00558087
internal_weight=0 45639.5 9242.9
internal_count=542411 450018 92393
is_linear=0
shrinkage=0.15


Tree=104
num_leaves=4
num_cat=0
split_feature=4 2 3
split_gain=14.8093 15.521 3.97884
threshold=119.50000000000001 11.500000000000002 24.500000000000004
decision_type=2 2 2
left_child=1 -1 -2
right_child=2 -3 -4
leaf_value=0.0010207534905550548 0.043147601438756435 -0.0053064321935082804 0.015302961272516956
leaf_weight=43481.169294981286 187.44358093291521 10912.621008520946 300.69910379126668
leaf_count=416091 696 124508 1116
internal_value=0 -0.000248623 0.0259951
internal_weight=0 54393.8 488.143
internal_count=542411 540599 1812
is_linear=0
shrinkage=0.15


Tree=105
num_leaves=4
num_cat=0
split_feature=41 2 4
split_gain=13.9092 18.4012 12.4841
threshold=1.0000000180025095e-35 1.0000000180025095e-35 95.500000000000014
decision_type=2 2 2
left_child=1 -1 -2
right_child=2 -3 -4
leaf_value=0.0064231300451235221 0.0043335464344994397 -0.0021099397843093318 0.027531311091973393
leaf_weight=6596.1425701119006 6500.7774200085551 41217.026506597176 567.54074590653181
leaf_count=40836 64994 433656 2925
internal_value=0 -0.000932746 0.00619618
internal_weight=0 47813.2 7068.32
internal_count=542411 474492 67919
is_linear=0
shrinkage=0.15


Tree=106
num_leaves=4
num_cat=0
split_feature=3 27 2
split_gain=13.9057 26.6926 15.7813
threshold=68.500000000000014 1.0000000180025095e-35 1.0000000180025095e-35
decision_type=2 2 2
left_child=2 -2 -1
right_child=1 -3 -4
leaf_value=0.0059630083290789096 -0.00027083098165814486 0.024002792119616988 -0.0017867415379621263
leaf_weight=6842.691094212234 3021.5463856067508 1538.2180606555194 43478.736912231892
leaf_count=42480 27155 12529 460247
internal_value=0 0.00791778 -0.000732933
internal_weight=0 4559.76 50321.4
internal_count=542411 39684 502727
is_linear=0
shrinkage=0.15


Tree=107
num_leaves=4
num_cat=0
split_feature=0 16 3
split_gain=14.3844 41.1916 19.083
threshold=0.16500000000000004 1.0000000180025095e-35 36.500000000000007
decision_type=2 2 2
left_child=1 -1 -2
right_child=2 -3 -4
leaf_value=-0.0178479430028653 -0.0037110165333747859 0.0037127926837444486 0.002944176738181517
leaf_weight=3585.8144117910415 13710.005079351366 4490.3754195421934 33094.856495950371
leaf_count=68407 116108 64073 293823
internal_value=0 -0.00586014 0.000994748
internal_weight=0 8076.19 46804.9
internal_count=542411 132480 409931
is_linear=0
shrinkage=0.15


Tree=108
num_leaves=4
num_cat=0
split_feature=4 0 3
split_gain=14.2173 26.82 15.0548
threshold=51.500000000000007 0.9850000000000001 25.500000000000004
decision_type=2 2 2
left_child=2 -2 -1
right_child=1 -3 -4
leaf_value=0.066622860882610463 -0.00023802827636512191 0.01099160814873675 -0.0024251519283763176
leaf_weight=71.220702264457941 19046.524344516918 6391.0132289044559 29372.361107695848
leaf_count=920 188010 34306 319175
internal_value=0 0.00258334 -0.00225813
internal_weight=0 25437.5 29443.6
internal_count=542411 222316 320095
is_linear=0
shrinkage=0.15


Tree=109
num_leaves=4
num_cat=0
split_feature=1 1 8
split_gain=13.621 15.3784 6.36619
threshold=4.5000000000000009 6.5000000000000009 1.0000000180025095e-35
decision_type=2 2 2
left_child=2 -2 -1
right_child=1 -3 -4
leaf_value=-0.0024818297441091841 0.0038069638728721422 -0.0016976056884004476 -0.010843858149967609
leaf_weight=6124.4925317130983 22773.554802650586 22904.872166959569 3078.0622359681875
leaf_count=62569 219165 230853 29824
internal_value=0 0.00104677 -0.00527875
internal_weight=0 45678.4 9202.55
internal_count=542411 450018 92393
is_linear=0
shrinkage=0.15


Tree=110
num_leaves=4
num_cat=0
split_feature=26 2 3
split_gain=13.2716 15.8585 6.93193
threshold=1.0000000180025095e-35 1.0000000180025095e-35 39.500000000000007
decision_type=2 2 2
left_child=1 -1 -2
right_child=2 -3 -4
leaf_value=0.0058571557985241836 -0.00063433342501801584 -0.0017127867456954015 0.013210914977038838
leaf_weight=7254.9673697054386 1210.5051986202598 43933.350915303454 2481.792471088469
leaf_count=44508 11469 464248 22186
internal_value=0 -0.000639892 0.00867181
internal_weight=0 51188.3 3692.3
internal_count=542411 508756 33655
is_linear=0
shrinkage=0.15


Tree=111
num_leaves=4
num_cat=0
split_feature=36 5 2
split_gain=12.9259 13.6556 3.85544
threshold=1.0000000180025095e-35 472.50000000000006 9.5000000000000018
decision_type=2 2 2
left_child=1 -1 -2
right_child=2 -3 -4
leaf_value=-0.0017439559527413389 -0.0063451171670090827 0.0031337918609544145 -0.018508320929051133
leaf_weight=27544.600450821221 2227.6788056585938 24312.179940683767 795.82740397937596
leaf_count=278957 22839 231284 9331
internal_value=0 0.000542894 -0.00954664
internal_weight=0 51856.8 3023.51
internal_count=542411 510241 32170
is_linear=0
shrinkage=0.15


Tree=112
num_leaves=4
num_cat=0
split_feature=3 3 4
split_gain=12.8825 24.5765 17.067
threshold=23.500000000000004 32.500000000000007 92.500000000000014
decision_type=2 2 2
left_child=2 -2 -1
right_child=1 -3 -4
leaf_value=-0.0060407204474590094 -0.0075899733292301144 0.00098089601423608321 0.020082696846122645
leaf_weight=880.97263165749609 9110.1620460432023 43331.213630940765 1557.5682893842459
leaf_count=8153 91589 432526 10143
internal_value=0 -0.000508043 0.0106451
internal_weight=0 52441.4 2438.54
internal_count=542411 524115 18296
is_linear=0
shrinkage=0.15


Tree=113
num_leaves=4
num_cat=0
split_feature=4 4 1
split_gain=13.0106 33.5425 13.769
threshold=54.500000000000007 63.500000000000007 7.5000000000000009
decision_type=2 2 2
left_child=2 -2 -1
right_child=1 -3 -4
leaf_value=-0.00034490743089062237 0.012615456867223639 -0.00055132004147416037 -0.007936633009804149
leaf_weight=24224.845343634486 5741.4618368931115 18005.321343835443 6908.2189155034721
leaf_count=262853 51965 150014 77579
internal_value=0 0.00263212 -0.00202946
internal_weight=0 23746.8 31133.1
internal_count=542411 201979 340432
is_linear=0
shrinkage=0.15


Tree=114
num_leaves=4
num_cat=0
split_feature=2 41 4
split_gain=12.7241 12.1991 4.03577
threshold=17.500000000000004 1.0000000180025095e-35 60.500000000000007
decision_type=2 2 2
left_child=1 -1 -2
right_child=2 -3 -4
leaf_value=-0.00050041535864789636 -0.019415093163671505 0.0062402803060444779 -0.0036914880051111248
leaf_weight=46380.206872548908 958.73269806243479 6945.5390117429197 595.37003350816667
leaf_count=456408 14304 65733 5966
internal_value=0 0.000377543 -0.0133914
internal_weight=0 53325.7 1554.1
internal_count=542411 522141 20270
is_linear=0
shrinkage=0.15


Tree=115
num_leaves=4
num_cat=0
split_feature=0 0 5
split_gain=12.4204 22.9314 14.2787
threshold=0.085000000000000006 0.075000000000000025 1640.0000000000002
decision_type=2 2 2
left_child=1 -1 -2
right_child=2 -3 -4
leaf_value=-0.00098256737579727129 -0.00078850299471744107 -0.024309030675235037 0.0050351888535257738
leaf_weight=3501.7917285691947 37390.453845957294 1300.3508585616946 12686.898117817938
leaf_count=56210 343365 35706 107130
internal_value=0 -0.00729904 0.000686906
internal_weight=0 4802.14 50077.4
internal_count=542411 91916 450495
is_linear=0
shrinkage=0.15


Tree=116
num_leaves=4
num_cat=0
split_feature=1 4 8
split_gain=12.1613 14.4574 5.94695
threshold=4.5000000000000009 76.500000000000014 1.0000000180025095e-35
decision_type=2 2 2
left_child=2 -2 -1
right_child=1 -3 -4
leaf_value=-0.0022957621746604634 -0.00029387200386773055 0.0065388481521822138 -0.010399984314944986
leaf_weight=6108.7072675414383 37137.138331621885 8576.8084138985723 3056.7434929907322
leaf_count=62569 386537 63481 29824
internal_value=0 0.000988077 -0.00499858
internal_weight=0 45713.9 9165.45
internal_count=542411 450018 92393
is_linear=0
shrinkage=0.15


Tree=117
num_leaves=4
num_cat=0
split_feature=3 22 3
split_gain=12.0333 11.4896 9.76043
threshold=85.500000000000014 1.0000000180025095e-35 87.500000000000014
decision_type=2 2 2
left_child=1 -1 -2
right_child=2 -3 -4
leaf_value=0.00032286267533634711 0.086569780698245571 -0.010470241332047601 0.011899965503673749
leaf_weight=52394.272403791547 63.331389077007771 2317.3331422973424 104.18142421729863
leaf_count=516114 473 25049 775
internal_value=0 -0.000134284 0.0401303
internal_weight=0 54711.6 167.513
internal_count=542411 541163 1248
is_linear=0
shrinkage=0.15


Tree=118
num_leaves=4
num_cat=0
split_feature=26 2 3
split_gain=11.3516 14.1391 5.8216
threshold=1.0000000180025095e-35 1.0000000180025095e-35 39.500000000000007
decision_type=2 2 2
left_child=1 -1 -2
right_child=2 -3 -4
leaf_value=0.0055266668950356918 -0.00056557175784275487 -0.0016092421593244053 0.012100078258093651
leaf_weight=7284.9330152198672 1209.3792024906725 43870.931150490418 2513.6314178928733
leaf_count=44508 11469 464248 22186
internal_value=0 -0.000593042 0.00798578
internal_weight=0 51155.9 3723.01
internal_count=542411 508756 33655
is_linear=0
shrinkage=0.15


Tree=119
num_leaves=4
num_cat=0
split_feature=4 3 2
split_gain=11.2479 12.1223 3.7585
threshold=119.50000000000001 38.500000000000007 4.5000000000000009
decision_type=2 2 2
left_child=1 -1 -2
right_child=2 -3 -4
leaf_value=-0.0033738398432134453 0.00046384940214303714 0.0013715235821848504 0.029886545842413376
leaf_weight=18213.724527643993 132.08515913039446 36157.719688661397 375.09218737483025
leaf_count=190852 499 349747 1313
internal_value=0 -0.000218111 0.0222239
internal_weight=0 54371.4 507.177
internal_count=542411 540599 1812
is_linear=0
shrinkage=0.15


Tree=120
num_leaves=4
num_cat=0
split_feature=0 16 3
split_gain=11.1257 36.1716 15.2947
threshold=0.16500000000000004 1.0000000180025095e-35 39.500000000000007
decision_type=2 2 2
left_child=1 -1 -2
right_child=2 -3 -4
leaf_value=-0.016593126579295705 -0.0027774941618332574 0.0037365398895255371 0.0028832682756948181
leaf_weight=3508.095023939386 16658.694448597729 4489.0122452955693 30222.539167642593
leaf_count=68407 146583 64073 263348
internal_value=0 -0.00518149 0.000871783
internal_weight=0 7997.11 46881.2
internal_count=542411 132480 409931
is_linear=0
shrinkage=0.15


Tree=121
num_leaves=4
num_cat=0
split_feature=4 4 3
split_gain=11.817 21.5928 12.7671
threshold=51.500000000000007 63.500000000000007 25.500000000000004
decision_type=2 2 2
left_child=2 -2 -1
right_child=1 -3 -4
leaf_value=0.059817202469145847 0.0090956198955691858 -0.00047233315148899509 -0.0022203759841404993
leaf_weight=74.829679917544127 7528.4073524866253 17986.106637934223 29289.132153380662
leaf_count=920 72302 150014 319175
internal_value=0 0.00235082 -0.00206228
internal_weight=0 25514.5 29364
internal_count=542411 222316 320095
is_linear=0
shrinkage=0.15


Tree=122
num_leaves=4
num_cat=0
split_feature=3 2 0
split_gain=11.1879 12.9225 5.05594
threshold=20.500000000000004 11.500000000000002 0.43500000000000005
decision_type=2 2 2
left_child=2 -2 -1
right_child=1 -3 -4
leaf_value=0.0310898278760692 0.00088125133563030512 -0.0049420059902963226 0.0069358941507593396
leaf_weight=352.3473894521594 43404.423166681081 10685.046571278945 436.60512169450521
leaf_count=3510 414130 122778 1993
internal_value=0 -0.000269098 0.0177231
internal_weight=0 54089.5 788.953
internal_count=542411 536908 5503
is_linear=0
shrinkage=0.15


Tree=123
num_leaves=4
num_cat=0
split_feature=4 4 3
split_gain=10.9232 134.825 18.4292
threshold=61.500000000000007 62.500000000000007 36.500000000000007
decision_type=2 2 2
left_child=2 -2 -1
right_child=1 -3 -4
leaf_value=-0.010270086496277496 0.057739887201249521 -3.0652517666755721e-06 -0.0002285731815387484
leaf_weight=4744.0185068901628 957.43945144489408 18291.668562028557 30885.05270213075
leaf_count=61444 5717 152542 322708
internal_value=0 0.00286904 -0.0015656
internal_weight=0 19249.1 35629.1
internal_count=542411 158259 384152
is_linear=0
shrinkage=0.15


Tree=124
num_leaves=4
num_cat=0
split_feature=27 3 2
split_gain=10.8492 41.6718 24.2039
threshold=1.0000000180025095e-35 42.500000000000007 1.0000000180025095e-35
decision_type=2 2 2
left_child=2 -2 -1
right_child=1 -3 -4
leaf_value=0.006867442648456029 -0.0062654422155295469 0.010653556147257661 -0.0028460731900892518
leaf_weight=6934.4028984233737 5573.6863499786705 7943.8484285194427 34427.564239030704
leaf_count=41514 56660 71852 372385
internal_value=0 0.00367734 -0.00121759
internal_weight=0 13517.5 41362
internal_count=542411 128512 413899
is_linear=0
shrinkage=0.15


Tree=125
num_leaves=4
num_cat=0
split_feature=4 4 3
split_gain=10.8913 43.0635 34.0136
threshold=72.500000000000014 75.500000000000014 32.500000000000007
decision_type=2 2 2
left_child=2 -2 -1
right_child=1 -3 -4
leaf_value=-0.013544838138682217 0.061733984310430062 0.0025436093481253038 0.00029921185359167067
leaf_weight=4462.369596241042 282.99439355172217 12164.519149769098 37969.830449050292
leaf_count=51728 2379 95239 393065
internal_value=0 0.0038893 -0.00115669
internal_weight=0 12447.5 42432.2
internal_count=542411 97618 444793
is_linear=0
shrinkage=0.15


Tree=126
num_leaves=4
num_cat=0
split_feature=1 4 8
split_gain=10.794 13.1687 5.75764
threshold=4.5000000000000009 68.500000000000014 1.0000000180025095e-35
decision_type=2 2 2
left_child=2 -2 -1
right_child=1 -3 -4
leaf_value=-0.0020601010174369234 -0.0005606595486347595 0.0052802203697633644 -0.010052990617581043
leaf_weight=6088.8311044946313 34097.763541240245 11653.166861630976 3040.282349422574
leaf_count=62569 357607 92411 29824
internal_value=0 0.000927064 -0.00472199
internal_weight=0 45750.9 9129.11
internal_count=542411 450018 92393
is_linear=0
shrinkage=0.15


Tree=127
num_leaves=4
num_cat=0
split_feature=2 41 3
split_gain=10.6301 10.5102 3.83354
threshold=17.500000000000004 1.0000000180025095e-35 80.500000000000014
decision_type=2 2 2
left_child=1 -1 -2
right_child=2 -3 -4
leaf_value=-0.00047611662517442634 -0.013528818172656568 0.0057646812193556506 0.035454058630031357
leaf_weight=46364.979842947796 1491.166743312031 6986.7002592105418 36.837653962895274
leaf_count=456408 19861 65733 409
internal_value=0 0.000341151 -0.0123479
internal_weight=0 53351.7 1528
internal_count=542411 522141 20270
is_linear=0
shrinkage=0.15


Tree=128
num_leaves=4
num_cat=0
split_feature=36 4 0
split_gain=10.365 10.9759 3.50174
threshold=1.0000000180025095e-35 76.500000000000014 0.12500000000000003
decision_type=2 2 2
left_child=1 -1 -2
right_child=2 -3 -4
leaf_value=-0.00058888274066762271 -0.021049589609054811 0.0049242163689368467 -0.0064879472863578385
leaf_weight=41813.876335807145 435.08197070658207 10084.746375434101 2545.59391181916
leaf_count=435287 8454 74954 23716
internal_value=0 0.000482402 -0.00861347
internal_weight=0 51898.6 2980.68
internal_count=542411 510241 32170
is_linear=0
shrinkage=0.15


Tree=129
num_leaves=4
num_cat=0
split_feature=26 27 5
split_gain=10.113 13.0107 4.8247
threshold=1.0000000180025095e-35 1.0000000180025095e-35 143.50000000000003
decision_type=2 2 2
left_child=1 -1 -2
right_child=2 -3 -4
leaf_value=-0.0019996765997935891 -0.0001179485248943039 0.0034203406597133582 0.011312445415523575
leaf_weight=37572.364098692313 1244.4559578858316 13562.126458669081 2499.9929692391306
leaf_count=380244 11771 128512 21884
internal_value=0 -0.000562155 0.00751359
internal_weight=0 51134.5 3744.45
internal_count=542411 508756 33655
is_linear=0
shrinkage=0.15


Tree=130
num_leaves=4
num_cat=0
split_feature=3 27 2
split_gain=9.6306 16.5213 11.6891
threshold=71.500000000000014 1.0000000180025095e-35 11.500000000000002
decision_type=2 2 2
left_child=2 -2 -1
right_child=1 -3 -4
leaf_value=0.00061570855489724411 -0.00011244587815381708 0.022015576476979961 -0.0050302920768442042
leaf_weight=41271.043702641502 2109.5699183996767 1185.9689216185361 10312.060833251104
leaf_count=395644 18618 9158 118991
internal_value=0 0.00785079 -0.000512992
internal_weight=0 3295.54 51583.1
internal_count=542411 27776 514635
is_linear=0
shrinkage=0.15


Tree=131
num_leaves=4
num_cat=0
split_feature=0 0 5
split_gain=9.59119 19.5609 12.547
threshold=0.085000000000000006 0.075000000000000025 1640.0000000000002
decision_type=2 2 2
left_child=1 -1 -2
right_child=2 -3 -4
leaf_value=-0.00067804218953546437 -0.00078611290926321143 -0.022513344254692837 0.0046635181976063828
leaf_weight=3487.3439929485321 37389.241369497031 1255.4245125036687 12746.471940049902
leaf_count=56210 343365 35706 107130
internal_value=0 -0.00645791 0.000599398
internal_weight=0 4742.77 50135.7
internal_count=542411 91916 450495
is_linear=0
shrinkage=0.15


Tree=132
num_leaves=4
num_cat=0
split_feature=3 3 0
split_gain=9.45614 16.5811 15.2857
threshold=23.500000000000004 32.500000000000007 0.56500000000000006
decision_type=2 2 2
left_child=2 -2 -1
right_child=1 -3 -4
leaf_value=0.020266078451967071 -0.0063220131647117248 0.0007711920309479112 -0.0032840300760316084
leaf_weight=1299.6830085627735 8940.7027743589133 43451.953123843297 1186.0327822044492
leaf_count=12875 91589 432526 5421
internal_value=0 -0.000439249 0.0090294
internal_weight=0 52392.7 2485.72
internal_count=542411 524115 18296
is_linear=0
shrinkage=0.15


Tree=133
num_leaves=4
num_cat=0
split_feature=1 1 16
split_gain=9.22519 12.3855 4.98232
threshold=4.5000000000000009 6.5000000000000009 1.0000000180025095e-35
decision_type=2 2 2
left_child=2 -2 -1
right_child=1 -3 -4
leaf_value=-0.011175300419383503 0.0033207965525531937 -0.001612909715179035 -0.0025616385819648806
leaf_weight=1914.3140644654632 22915.849586268887 22878.251941585913 7169.8533642850816
leaf_count=22635 219165 230853 69758
internal_value=0 0.000855969 -0.0043768
internal_weight=0 45794.1 9084.17
internal_count=542411 450018 92393
is_linear=0
shrinkage=0.15


Tree=134
num_leaves=4
num_cat=0
split_feature=4 0 3
split_gain=9.11702 21.0034 11.0789
threshold=51.500000000000007 0.9850000000000001 25.500000000000004
decision_type=2 2 2
left_child=2 -2 -1
right_child=1 -3 -4
leaf_value=0.054716261726482231 -0.00045109233905182725 0.0094139782582963183 -0.0019692360646964358
leaf_weight=77.783935081213713 19101.336740670726 6511.1853431686759 29187.700573746115
leaf_count=920 188010 34306 319175
internal_value=0 0.00205679 -0.00181857
internal_weight=0 25612.5 29265.5
internal_count=542411 222316 320095
is_linear=0
shrinkage=0.15


Tree=135
num_leaves=4
num_cat=0
split_feature=33 2 4
split_gain=9.02109 25.0127 10.6524
threshold=1.0000000180025095e-35 1.0000000180025095e-35 57.500000000000007
decision_type=2 2 2
left_child=2 -2 -1
right_child=1 -3 -4
leaf_value=-0.0013324427411159842 0.021390417332218928 -0.016132944629183812 0.0030361461705948954
leaf_weight=31431.056100474671 497.50614429265261 2033.2499906644225 20916.119126521051
leaf_count=343265 3035 25572 170539
internal_value=0 -0.00875645 0.000413094
internal_weight=0 2530.76 52347.2
internal_count=542411 28607 513804
is_linear=0
shrinkage=0.15


Tree=136
num_leaves=4
num_cat=0
split_feature=22 1 0
split_gain=8.95571 9.82453 5.55888
threshold=1.0000000180025095e-35 8.5000000000000018 0.25500000000000006
decision_type=2 2 2
left_child=1 -1 -2
right_child=2 -3 -4
leaf_value=-0.00041911067186659122 -0.021651378596522518 0.005585104827097195 -0.0048075593446072372
leaf_weight=45503.035560436547 596.17971442453563 7086.6672401037067 1692.014930807054
leaf_count=444053 10093 73260 15005
internal_value=0 0.000389981 -0.00919615
internal_weight=0 52589.7 2288.19
internal_count=542411 517313 25098
is_linear=0
shrinkage=0.15


Tree=137
num_leaves=4
num_cat=0
split_feature=2 41 16
split_gain=8.93817 8.90456 3.70478
threshold=17.500000000000004 1.0000000180025095e-35 1.0000000180025095e-35
decision_type=2 2 2
left_child=1 -1 -2
right_child=2 -3 -4
leaf_value=-0.00044240970276815297 0.00073880781210843385 0.0052872385282719311 -0.01596736655175926
leaf_weight=46343.873651683331 410.75894268602133 7028.514704445377 1094.489581566304
leaf_count=456408 5808 65733 14462
internal_value=0 0.000312117 -0.0114085
internal_weight=0 53372.4 1505.25
internal_count=542411 522141 20270
is_linear=0
shrinkage=0.15


Tree=138
num_leaves=4
num_cat=0
split_feature=26 27 3
split_gain=8.67136 10.8984 4.35892
threshold=1.0000000180025095e-35 1.0000000180025095e-35 39.500000000000007
decision_type=2 2 2
left_child=1 -1 -2
right_child=2 -3 -4
leaf_value=-0.0018412700876821678 -0.00049519226318073923 0.0031135595841507249 0.010433653587536356
leaf_weight=37490.437224032357 1208.2288777362555 13615.741669146344 2562.9567423202097
leaf_count=380244 11469 128512 22186
internal_value=0 -0.000521201 0.00693222
internal_weight=0 51106.2 3771.19
internal_count=542411 508756 33655
is_linear=0
shrinkage=0.15


Tree=139
num_leaves=4
num_cat=0
split_feature=3 5 3
split_gain=8.54553 8.82928 7.09579
threshold=85.500000000000014 1640.0000000000002 87.500000000000014
decision_type=2 2 2
left_child=1 -1 -2
right_child=2 -3 -4
leaf_value=-0.0012527072673732447 0.069642430029609959 0.0030787834438901732 0.0085731874533921653
leaf_weight=40341.318131914362 70.769333574920893 14356.698643993586 108.35412401147187
leaf_count=405441 473 135722 775
internal_value=0 -0.000115812 0.0327008
internal_weight=0 54698 179.123
internal_count=542411 541163 1248
is_linear=0
shrinkage=0.15


Tree=140
num_leaves=4
num_cat=0
split_feature=4 2 2
split_gain=8.3951 9.73689 3.08615
threshold=119.50000000000001 9.5000000000000018 4.5000000000000009
decision_type=2 2 2
left_child=1 -1 -2
right_child=2 -3 -4
leaf_value=0.001131032254052391 -0.00076017329575563922 -0.0032401421603718505 0.025595786278541345
leaf_weight=37915.160613436252 134.27803222835064 16436.330807421356 391.1730502769351
leaf_count=361962 499 178637 1313
internal_value=0 -0.000190846 0.0188606
internal_weight=0 54351.5 525.451
internal_count=542411 540599 1812
is_linear=0
shrinkage=0.15


Tree=141
num_leaves=4
num_cat=0
split_feature=36 5 2
split_gain=8.16499 8.79737 3.11094
threshold=1.0000000180025095e-35 472.50000000000006 9.5000000000000018
decision_type=2 2 2
left_child=1 -1 -2
right_child=2 -3 -4
leaf_value=-0.001418660989817391 -0.0048145674465492434 0.0024919197489675993 -0.015954298679481067
leaf_weight=27421.97522665374 2178.7421646881849 24514.899688959122 761.10265805199742
leaf_count=278957 22839 231284 9331
internal_value=0 0.000427185 -0.00769856
internal_weight=0 51936.9 2939.84
internal_count=542411 510241 32170
is_linear=0
shrinkage=0.15


Tree=142
num_leaves=4
num_cat=0
split_feature=3 27 2
split_gain=8.20483 17.429 10.2594
threshold=68.500000000000014 1.0000000180025095e-35 1.0000000180025095e-35
decision_type=2 2 2
left_child=2 -2 -1
right_child=1 -3 -4
leaf_value=0.0047848466481969975 -0.00070233492494741476 0.018527782210149887 -0.0014261243516670808
leaf_weight=6944.3881873041391 3039.2166456263512 1628.7594498749822 43264.13488591928
leaf_count=42480 27155 12529 460247
internal_value=0 0.00600748 -0.000567079
internal_weight=0 4667.98 50208.5
internal_count=542411 39684 502727
is_linear=0
shrinkage=0.15


Tree=143
num_leaves=4
num_cat=0
split_feature=0 16 3
split_gain=8.50793 31.2931 11.7013
threshold=0.16500000000000004 1.0000000180025095e-35 35.500000000000007
decision_type=2 2 2
left_child=1 -1 -2
right_child=2 -3 -4
leaf_value=-0.015334635894339824 -0.0031569966156572813 0.0036868786825137571 0.002191311424408321
leaf_weight=3433.459874516353 12568.904504677281 4491.8639346752316 34382.247082026675
leaf_count=68407 106022 64073 303909
internal_value=0 -0.00455374 0.00075956
internal_weight=0 7925.32 46951.2
internal_count=542411 132480 409931
is_linear=0
shrinkage=0.15


Tree=144
num_leaves=4
num_cat=0
split_feature=3 2 2
split_gain=8.02661 8.65136 4.1195
threshold=20.500000000000004 9.5000000000000018 21.500000000000004
decision_type=2 2 2
left_child=2 -2 -1
right_child=1 -3 -4
leaf_value=0.014054630030099749 0.0010090751861499736 -0.003134895138420476 0.17456492010492497
leaf_weight=811.47539878636599 37887.000739522278 16174.535212150775 3.6136927902698508
leaf_count=5475 360676 176232 28
internal_value=0 -0.000230749 0.0147663
internal_weight=0 54061.5 815.089
internal_count=542411 536908 5503
is_linear=0
shrinkage=0.15


Tree=145
num_leaves=4
num_cat=0
split_feature=1 1 8
split_gain=7.84559 10.9036 5.26503
threshold=4.5000000000000009 6.5000000000000009 1.0000000180025095e-35
decision_type=2 2 2
left_child=2 -2 -1
right_child=1 -3 -4
leaf_value=-0.0014953765081027533 0.0030958726508047664 -0.0015312343479272773 -0.0091829122393977738
leaf_weight=6041.7233110694215 22982.285310063511 22852.639602490701 2999.7756663560867
leaf_count=62569 219165 230853 29824
internal_value=0 0.000788863 -0.00404594
internal_weight=0 45834.9 9041.5
internal_count=542411 450018 92393
is_linear=0
shrinkage=0.15


Tree=146
num_leaves=4
num_cat=0
split_feature=26 2 5
split_gain=7.53313 9.67336 3.87257
threshold=1.0000000180025095e-35 1.0000000180025095e-35 36.500000000000007
decision_type=2 2 2
left_child=1 -1 -2
right_child=2 -3 -4
leaf_value=0.0045381510900825853 -0.022205727747499106 -0.0013344613785090506 0.0072428145844056517
leaf_weight=7376.0584222115576 103.28589174896479 43706.141933520325 3690.7836418170482
leaf_count=44508 1015 464248 32640
internal_value=0 -0.00048648 0.00644114
internal_weight=0 51082.2 3794.07
internal_count=542411 508756 33655
is_linear=0
shrinkage=0.15


Tree=147
num_leaves=4
num_cat=0
split_feature=0 1 1
split_gain=7.64145 29.1966 11.0142
threshold=0.12500000000000003 7.5000000000000009 8.5000000000000018
decision_type=2 2 2
left_child=1 -1 -2
right_child=2 -3 -4
leaf_value=0.001073798950589953 -0.00023818637273112996 -0.021918935627783687 0.0064626812223817706
leaf_weight=4837.7750914664939 42012.342396792024 1672.0925664529204 6353.8847544118762
leaf_count=87950 368443 26647 59371
internal_value=0 -0.004832 0.000642108
internal_weight=0 6509.87 48366.2
internal_count=542411 114597 427814
is_linear=0
shrinkage=0.15


Tree=148
num_leaves=4
num_cat=0
split_feature=41 27 4
split_gain=7.60823 11.206 7.96232
threshold=1.0000000180025095e-35 1.0000000180025095e-35 95.500000000000014
decision_type=2 2 2
left_child=1 -1 -2
right_child=2 -3 -4
leaf_value=-0.002151724341254089 0.0030221235380349059 0.0029363701320387274 0.02098024663452976
leaf_weight=34012.076666779816 6610.766807673499 13646.902032518759 606.48567386902869
leaf_count=345980 64994 128512 2925
internal_value=0 -0.000694775 0.00453119
internal_weight=0 47659 7217.25
internal_count=542411 474492 67919
is_linear=0
shrinkage=0.15


Tree=149
num_leaves=4
num_cat=0
split_feature=4 4 1
split_gain=7.46313 19.8235 10.2203
threshold=51.500000000000007 63.500000000000007 7.5000000000000009
decision_type=2 2 2
left_child=2 -2 -1
right_child=1 -3 -4
leaf_value=-0.00015262912132078929 0.008284589468585353 -0.00084474713801361548 -0.0069153769751512289
leaf_weight=22741.591593095101 7602.1731082946062 18077.062647394836 6455.2965426873416
leaf_count=246776 72302 150014 73319
internal_value=0 0.00185793 -0.00164784
internal_weight=0 25679.2 29196.9
internal_count=542411 222316 320095
is_linear=0
shrinkage=0.15


Tree=150
num_leaves=4
num_cat=0
split_feature=4 3 8
split_gain=7.31373 8.27848 7.87481
threshold=108.50000000000001 43.500000000000007 1.0000000180025095e-35
decision_type=2 2 2
left_child=1 -1 -2
right_child=2 -3 -4
leaf_value=-0.0023627420650670981 0.016040154810820814 0.0013900963951876679 -0.015549576863490757
leaf_weight=23827.365338398144 1113.4682656303048 29724.073015449569 211.23814514279366
leaf_count=256289 3711 281412 999
internal_value=0 -0.000279705 0.0110028
internal_weight=0 53551.4 1324.71
internal_count=542411 537701 4710
is_linear=0
shrinkage=0.15


Tree=151
num_leaves=4
num_cat=0
split_feature=1 1 1
split_gain=7.29876 38.4738 15.625
threshold=8.5000000000000018 7.5000000000000009 10.500000000000002
decision_type=2 2 2
left_child=1 -1 -2
right_child=2 -3 -4
leaf_value=0.00054002747933545858 0.0095154850691073611 -0.015501227695018865 -0.0048060137694776591
leaf_weight=43791.754440456629 4762.3140018582344 3644.0499599315226 2677.8878923431039
leaf_count=427754 48994 37578 28085
internal_value=0 -0.000692272 0.00436087
internal_weight=0 47435.8 7440.2
internal_count=542411 465332 77079
is_linear=0
shrinkage=0.15


Tree=152
num_leaves=4
num_cat=0
split_feature=2 1 16
split_gain=7.22842 7.45389 3.47403
threshold=17.500000000000004 8.5000000000000018 1.0000000180025095e-35
decision_type=2 2 2
left_child=1 -1 -2
right_child=2 -3 -4
leaf_value=-0.00042000034067552703 0.0014558925764998941 0.0047719709612118492 -0.014820663006707018
leaf_weight=46206.31667434331 406.88042276911438 7189.6502471398562 1073.4553038924932
leaf_count=449107 5808 73034 14462
internal_value=0 0.000279087 -0.0103469
internal_weight=0 53396 1480.34
internal_count=542411 522141 20270
is_linear=0
shrinkage=0.15


Tree=153
num_leaves=4
num_cat=0
split_feature=3 3 0
split_gain=7.23251 13.6006 13.1358
threshold=23.500000000000004 32.500000000000007 0.56500000000000006
decision_type=2 2 2
left_child=2 -2 -1
right_child=1 -3 -4
leaf_value=0.018084423742909039 -0.00574003636124656 0.00070634435270809095 -0.0036010239223073798
leaf_weight=1330.3127098362893 8865.01621652022 43489.426149421372 1191.336523566395
leaf_count=12875 91589 432526 5421
internal_value=0 -0.000385201 0.00783928
internal_weight=0 52354.4 2521.65
internal_count=542411 524115 18296
is_linear=0
shrinkage=0.15


Tree=154
num_leaves=4
num_cat=0
split_feature=4 4 3
split_gain=7.32335 106.684 11.9042
threshold=61.500000000000007 63.500000000000007 36.500000000000007
decision_type=2 2 2
left_child=2 -2 -1
right_child=1 -3 -4
leaf_value=-0.0083982209280229203 0.043149510067599692 -0.00069685595044820259 -0.00022647191965850937
leaf_weight=4609.6529072914273 1341.4112049341202 18040.832746876404 30884.178841337562
leaf_count=61444 8245 150014 322708
internal_value=0 0.00233767 -0.00128775
internal_weight=0 19382.2 35493.8
internal_count=542411 158259 384152
is_linear=0
shrinkage=0.15


Tree=155
num_leaves=4
num_cat=0
split_feature=22 33 0
split_gain=7.09558 7.71156 4.78137
threshold=1.0000000180025095e-35 1.0000000180025095e-35 0.25500000000000006
decision_type=2 2 2
left_child=1 -1 -2
right_child=2 -3 -4
leaf_value=0.00074951926809701803 -0.020009905927290374 -0.007795880403245233 -0.0041922072088469891
leaf_weight=50127.386996598914 578.21623119525611 2494.3053342383355 1677.2034027315676
leaf_count=488706 10093 28607 15005
internal_value=0 0.000344461 -0.00824735
internal_weight=0 52621.7 2255.42
internal_count=542411 517313 25098
is_linear=0
shrinkage=0.15


Tree=156
num_leaves=4
num_cat=0
split_feature=4 4 3
split_gain=7.06908 30.5188 24.9749
threshold=76.500000000000014 78.500000000000014 32.500000000000007
decision_type=2 2 2
left_child=2 -2 -1
right_child=1 -3 -4
leaf_value=-0.010701754106001439 0.058608368994993901 0.0022759621068015718 0.00044278639962118112
leaf_weight=5119.4586184928194 220.89291752502322 10610.475888242945 38926.028906922787
leaf_count=60481 1299 79400 401231
internal_value=0 0.00342479 -0.000852557
internal_weight=0 10831.4 44045.5
internal_count=542411 80699 461712
is_linear=0
shrinkage=0.15


Tree=157
num_leaves=4
num_cat=0
split_feature=1 4 0
split_gain=6.78231 9.42528 4.59016
threshold=4.5000000000000009 68.500000000000014 0.085000000000000006
decision_type=2 2 2
left_child=2 -2 -1
right_child=1 -3 -4
leaf_value=-0.01382735430903049 -0.00053405076925167104 0.004386952113801237 -0.0026316015670877699
leaf_weight=917.40183587372303 34085.495081877336 11785.14071148634 8089.0730271078646
leaf_count=15603 357607 92411 76790
internal_value=0 0.000730259 -0.003772
internal_weight=0 45870.6 9006.47
internal_count=542411 450018 92393
is_linear=0
shrinkage=0.15


Tree=158
num_leaves=4
num_cat=0
split_feature=2 0 3
split_gain=6.65736 7.18683 4.82098
threshold=14.500000000000002 0.21500000000000002 42.500000000000007
decision_type=2 2 2
left_child=1 -1 -2
right_child=2 -3 -4
leaf_value=-0.0033596214811298054 -0.010574028017719157 0.0013399612753144197 -0.0010337927806656866
leaf_weight=8905.7537020072341 2170.8937733760104 41157.751826323569 2642.4700251556933
leaf_count=140501 28259 341453 32198
internal_value=0 0.000503957 -0.00533657
internal_weight=0 50063.5 4813.36
internal_count=542411 481954 60457
is_linear=0
shrinkage=0.15


Tree=159
num_leaves=4
num_cat=0
split_feature=0 0 32
split_gain=6.66983 18.211 13.5657
threshold=0.0027359832322778653 0.004102103450857101 1.0000000180025095e-35
decision_type=2 2 2
left_child=2 -2 -1
right_child=1 -3 -4
leaf_value=0.02894153950832791 -0.070816276518242169 5.0745160964948431e-05 0.294065842022739
leaf_weight=39.157169423997402 81.710046261548996 54750.870625021867 4.8839566707611075
leaf_count=792 1627 539915 77
internal_value=0 -5.4859e-05 0.0583426
internal_weight=0 54832.6 44.0411
internal_count=542411 541542 869
is_linear=0
shrinkage=0.15


Tree=160
num_leaves=4
num_cat=0
split_feature=2 8 8
split_gain=6.67452 144.354 34.4196
threshold=1.0000000180025095e-35 1.0000000180025095e-35 1.0000000180025095e-35
decision_type=2 2 2
left_child=1 -1 -2
right_child=2 -3 -4
leaf_value=-0.028792477269242979 0.0011299250984122726 0.017050273741032573 -0.0097654238612445866
leaf_weight=2153.3934645541012 39431.233434863389 5474.7713596299291 7817.2351709492505
leaf_count=16517 393048 29758 103088
internal_value=0 0.00410909 -0.000672705
internal_weight=0 7628.16 47248.5
internal_count=542411 46275 496136
is_linear=0
shrinkage=0.15


Tree=161
num_leaves=4
num_cat=0
split_feature=36 5 0
split_gain=6.58608 7.56493 2.80364
threshold=1.0000000180025095e-35 721.50000000000011 0.015000000000000001
decision_type=2 2 2
left_child=1 -1 -2
right_child=2 -3 -4
leaf_value=-0.0011226053699325319 -0.051081869560733358 0.0025603399277845927 -0.006465867793032546
leaf_weight=30789.124850549735 32.043167697265744 21181.563840953633 2875.5433236202225
leaf_count=311935 610 198306 31560
internal_value=0 0.000378443 -0.00695756
internal_weight=0 51970.7 2907.59
internal_count=542411 510241 32170
is_linear=0
shrinkage=0.15


Tree=162
num_leaves=4
num_cat=0
split_feature=26 2 5
split_gain=6.63978 8.522 3.41272
threshold=1.0000000180025095e-35 1.0000000180025095e-35 143.50000000000003
decision_type=2 2 2
left_child=1 -1 -2
right_child=2 -3 -4
leaf_value=0.0042451414768776442 -0.00040117751801118154 -0.0012585762514107477 0.0091597687304785201
leaf_weight=7403.5089006051421 1249.213443165645 43660.850535177626 2564.3304945360869
leaf_count=44508 11771 464248 21884
internal_value=0 -0.000460626 0.00602786
internal_weight=0 51064.4 3813.54
internal_count=542411 508756 33655
is_linear=0
shrinkage=0.15


Tree=163
num_leaves=4
num_cat=0
split_feature=3 5 3
split_gain=6.38213 6.53367 5.33334
threshold=85.500000000000014 32.500000000000007 87.500000000000014
decision_type=2 2 2
left_child=1 -1 -2
right_child=2 -3 -4
leaf_value=-0.0051258791011581069 0.057896028150360497 0.000431118377578749 0.006536647416087271
leaf_weight=5268.0205371305346 77.04868832603097 49421.431877030991 111.07759153284132
leaf_count=53556 473 487607 775
internal_value=0 -0.000104165 0.0275713
internal_weight=0 54689.5 188.126
internal_count=542411 541163 1248
is_linear=0
shrinkage=0.15


Tree=164
num_leaves=4
num_cat=0
split_feature=27 3 2
split_gain=6.45798 30.3839 15.8939
threshold=1.0000000180025095e-35 42.500000000000007 1.0000000180025095e-35
decision_type=2 2 2
left_child=2 -2 -1
right_child=1 -3 -4
leaf_value=0.0055386241318791957 -0.0057593881823035731 0.0086488196560089593 -0.0022842468185468039
leaf_weight=7049.5469070523977 5532.6467482903972 8135.4045537747443 34159.678317933343
leaf_count=41514 56660 71852 372385
internal_value=0 0.00281657 -0.00094601
internal_weight=0 13668.1 41209.2
internal_count=542411 128512 413899
is_linear=0
shrinkage=0.15


Tree=165
num_leaves=4
num_cat=0
split_feature=4 4 3
split_gain=6.49493 16.3699 9.95932
threshold=51.500000000000007 63.500000000000007 25.500000000000004
decision_type=2 2 2
left_child=2 -2 -1
right_child=1 -3 -4
leaf_value=0.051356841774518477 0.0075326295232054571 -0.00073863589733755178 -0.001687138490938378
leaf_weight=79.860375516116619 7671.8695269133896 18051.053141735494 29074.600232795812
leaf_count=920 72302 150014 319175
internal_value=0 0.00172827 -0.00154184
internal_weight=0 25722.9 29154.5
internal_count=542411 222316 320095
is_linear=0
shrinkage=0.15


Tree=166
num_leaves=4
num_cat=0
split_feature=0 16 3
split_gain=6.31877 31.2489 12.2989
threshold=0.24500000000000002 1.0000000180025095e-35 35.500000000000007
decision_type=2 2 2
left_child=1 -1 -2
right_child=2 -3 -4
leaf_value=-0.012281213464770954 -0.0034248827064211045 0.0038805346514365693 0.0022859135273604033
leaf_weight=4810.5841847490519 11487.004503540695 6111.5248816367239 32468.146080892533
leaf_count=88828 92930 84210 276443
internal_value=0 -0.00323782 0.000793485
internal_weight=0 10922.1 43955.2
internal_count=542411 173038 369373
is_linear=0
shrinkage=0.15


Tree=167
num_leaves=4
num_cat=0
split_feature=3 4 0
split_gain=6.54024 12.0811 10.7142
threshold=23.500000000000004 92.500000000000014 0.56500000000000006
decision_type=2 2 2
left_child=1 -1 -2
right_child=2 -3 -4
leaf_value=-0.0066561014971955436 -0.0028996960110437534 0.015046472295116881 0.0014507939362660243
leaf_weight=888.96497050486505 21898.192712391727 1645.1801478005946 30444.995262730867
leaf_count=8153 289816 10143 234299
internal_value=0 0.00743332 -0.000369268
internal_weight=0 2534.15 52343.2
